lat,long,date
25.17,-80.969,2015-04-18
25.172,-80.958,2015-04-18
25.177,-80.659,2015-05-29
25.185,-80.914,2015-07-14
25.2,-80.736,2015-05-19
25.561,-97.753,2015-07-23
25.587,-80.903,2015-07-11
25.592,-80.397,2015-05-30
25.599,-80.393,2015-05-30
25.628,-97.744,2015-08-14
25.628,-97.744,2015-08-14
25.628,-97.743,2015-08-14
25.632,-80.552,2015-01-22
25.655,-97.49,2015-05-01
25.66,-97.399,2015-07-16
25.669,-98.31,2015-09-05
25.71,-98.502,2015-08-28
25.727,-80.48,2015-04-20
25.763,-80.932,2015-02-03
25.773,-80.89,2015-02-03
25.78,-80.937,2015-02-03
25.787,-80.887,2015-02-03
25.79,-80.895,2015-02-03
25.798,-80.981,2015-02-04
25.814,-97.643,2015-08-06
25.829,-97.811,2015-08-03
25.835,-97.433,2015-06-27
25.882,-80.363,2015-08-16
25.882,-80.363,2015-08-16
25.885,-80.38,2015-09-04
25.894,-80.472,2015-02-13
25.909,-97.904,2015-08-03
25.909,-81.313,2015-02-23
25.926,-97.404,2015-08-28
25.931,-98.014,2015-07-21
25.938,-81.312,2015-02-17
25.939,-81.305,2015-02-17
25.949,-81.379,2015-02-04
25.951,-80.541,2015-08-19
25.951,-80.541,2015-08-19
25.951,-80.541,2015-08-19
25.955,-81.729,2015-07-03
25.955,-80.547,2015-08-19
25.955,-80.547,2015-08-19
25.955,-80.547,2015-08-19
25.957,-81.333,2015-02-24
25.961,-80.544,2015-08-19
25.961,-80.544,2015-08-19
25.961,-80.544,2015-08-19
25.963,-80.538,2015-08-19
25.965,-97.943,2015-08-14
25.965,-97.943,2015-08-14
25.965,-97.943,2015-08-14
25.976,-98.308,2015-08-16
25.982,-80.526,2015-08-20
25.985,-97.952,2015-08-15
25.987,-81.079,2015-07-11
25.988,-81.058,2015-07-12
25.989,-81.125,2015-05-21
25.991,-81.151,2015-05-20
25.993,-81.189,2015-03-05
25.997,-98.316,2015-02-20
25.999,-81.574,2015-08-06
25.999,-80.968,2015-07-05
26.003,-98.325,2015-07-23
26.004,-80.5,2015-08-21
26.005,-81.127,2015-05-19
26.006,-98.314,2015-08-24
26.006,-98.314,2015-08-24
26.006,-98.314,2015-08-24
26.006,-98.303,2015-02-20
26.006,-81.138,2015-05-19
26.008,-81.149,2015-05-19
26.01,-81.103,2015-05-19
26.011,-98.486,2015-03-12
26.011,-81.15,2015-05-18
26.011,-80.503,2015-08-21
26.011,-80.503,2015-08-21
26.012,-81.114,2015-05-19
26.013,-80.514,2015-08-21
26.013,-80.514,2015-08-21
26.013,-80.514,2015-08-21
26.014,-98.132,2015-08-06
26.014,-81.125,2015-05-19
26.016,-81.107,2015-05-19
26.018,-81.152,2015-05-18
26.02,-81.141,2015-05-18
26.021,-98.711,2015-09-05
26.021,-81.137,2015-05-17
26.025,-81.114,2015-05-20
26.025,-81.108,2015-05-18
26.027,-81.097,2015-05-18
26.028,-97.65,2015-04-28
26.028,-81.554,2015-02-13
26.028,-81.086,2015-05-17
26.03,-81.097,2015-05-17
26.03,-80.736,2015-02-10
26.031,-97.677,2015-04-30
26.031,-81.466,2015-04-19
26.033,-80.753,2015-02-10
26.035,-81.536,2015-02-04
26.035,-81.091,2015-05-16
26.036,-81.129,2015-05-15
26.037,-81.555,2015-02-13
26.037,-81.526,2015-02-04
26.037,-81.462,2015-01-28
26.039,-98.186,2015-02-09
26.039,-81.544,2015-02-13
26.039,-81.134,2015-05-15
26.039,-80.774,2015-02-10
26.04,-97.647,2015-04-28
26.041,-81.548,2015-01-31
26.042,-81.548,2015-04-19
26.042,-81.503,2015-02-24
26.044,-81.127,2015-05-13
26.045,-81.153,2015-05-15
26.046,-81.092,2015-05-16
26.046,-81.09,2015-05-16
26.046,-80.777,2015-02-20
26.046,-80.742,2015-02-10
26.047,-81.557,2015-02-13
26.047,-80.767,2015-02-20
26.048,-81.546,2015-02-13
26.048,-81.078,2015-05-15
26.049,-98.049,2015-07-28
26.049,-81.074,2015-05-18
26.051,-81.537,2015-01-29
26.052,-81.127,2015-05-14
26.052,-81.093,2015-05-14
26.053,-97.833,2015-06-09
26.054,-80.778,2015-02-10
26.054,-80.778,2015-02-20
26.056,-81.083,2015-05-16
26.059,-97.843,2015-06-06
26.065,-81.677,2015-04-16
26.065,-81.109,2015-05-10
26.067,-98.364,2015-08-03
26.067,-81.073,2015-05-20
26.068,-81.121,2015-05-11
26.069,-81.098,2015-05-16
26.069,-80.745,2015-01-28
26.071,-98.502,2015-08-16
26.071,-98.502,2015-08-16
26.075,-81.752,2015-03-16
26.076,-81.765,2015-03-29
26.077,-81.762,2015-03-16
26.077,-81.12,2015-05-10
26.078,-80.747,2015-01-28
26.079,-81.74,2015-03-29
26.081,-98.162,2015-02-11
26.081,-81.759,2015-03-29
26.082,-81.111,2015-05-09
26.085,-81.746,2015-03-29
26.086,-81.76,2015-03-16
26.087,-81.118,2015-05-10
26.09,-81.767,2015-02-23
26.091,-81.369,2015-03-03
26.095,-80.675,2015-06-07
26.098,-81.762,2015-01-06
26.101,-81.758,2015-02-12
26.103,-80.666,2015-06-08
26.106,-98.291,2015-08-02
26.112,-81.606,2015-05-09
26.113,-81.596,2015-05-09
26.118,-98.551,2015-07-27
26.118,-97.732,2015-07-30
26.127,-98.363,2015-07-29
26.129,-98.349,2015-07-29
26.129,-98.349,2015-08-19
26.129,-98.349,2015-08-19
26.13,-98.533,2015-07-29
26.132,-98.519,2015-07-29
26.135,-98.505,2015-07-29
26.139,-97.298,2015-04-07
26.141,-98.535,2015-07-28
26.141,-97.309,2015-04-07
26.156,-81.758,2015-07-23
26.168,-97.312,2015-03-03
26.172,-81.794,2015-02-19
26.173,-98.703,2015-08-07
26.173,-98.703,2015-08-07
26.173,-98.703,2015-08-07
26.173,-98.586,2015-07-19
26.173,-97.912,2015-02-18
26.177,-80.39,2015-05-23
26.185,-98.658,2015-08-11
26.185,-98.658,2015-08-11
26.19,-81.153,2015-05-15
26.194,-98.521,2015-07-22
26.195,-81.378,2015-01-19
26.195,-81.131,2015-05-20
26.196,-81.14,2015-05-16
26.197,-81.113,2015-05-15
26.198,-81.125,2015-05-16
26.199,-81.624,2015-02-25
26.206,-80.849,2015-04-26
26.209,-81.111,2015-05-16
26.21,-81.101,2015-05-16
26.213,-81.143,2015-05-15
26.213,-80.837,2015-03-22
26.22,-98.443,2015-07-28
26.221,-99.468,2015-08-02
26.224,-97.936,2015-01-29
26.227,-80.866,2015-02-08
26.229,-97.91,2015-01-29
26.229,-81.458,2015-08-05
26.23,-97.942,2015-01-29
26.23,-81.105,2015-05-21
26.231,-81.116,2015-05-21
26.232,-99.367,2015-08-06
26.233,-81.12,2015-05-19
26.24,-81.532,2015-02-19
26.246,-80.845,2015-03-23
26.254,-81.324,2015-05-18
26.256,-81.314,2015-05-18
26.259,-80.856,2015-03-23
26.26,-97.862,2015-02-12
26.262,-98.064,2015-09-03
26.262,-97.916,2015-06-11
26.263,-98.787,2015-08-07
26.263,-98.787,2015-08-07
26.263,-98.787,2015-08-07
26.274,-80.931,2015-02-24
26.275,-98.79,2015-08-07
26.275,-98.79,2015-08-07
26.278,-80.907,2015-08-05
26.278,-80.898,2015-02-03
26.284,-81.059,2015-06-25
26.285,-80.914,2015-08-28
26.286,-80.934,2015-02-24
26.291,-81.362,2015-03-15
26.298,-81.355,2015-01-28
26.304,-81.725,2015-03-17
26.304,-81.04,2015-05-01
26.307,-81.712,2015-03-25
26.315,-97.917,2015-07-13
26.315,-81.712,2015-05-18
26.316,-81.037,2015-05-01
26.316,-80.918,2015-06-23
26.318,-80.92,2015-08-19
26.318,-80.92,2015-08-19
26.318,-80.92,2015-08-19
26.319,-80.925,2015-05-22
26.32,-97.92,2015-07-12
26.32,-80.907,2015-07-13
26.321,-80.943,2015-07-20
26.321,-80.914,2015-05-24
26.322,-81.097,2015-02-24
26.323,-80.937,2015-05-15
26.323,-80.921,2015-07-13
26.324,-80.908,2015-08-05
26.326,-80.919,2015-04-04
26.328,-80.93,2015-07-27
26.331,-80.912,2015-08-24
26.332,-80.919,2015-05-31
26.334,-81.032,2015-08-25
26.336,-98.938,2015-08-03
26.338,-98.598,2015-07-10
26.343,-80.249,2015-06-04
26.345,-98.92,2015-08-18
26.345,-98.92,2015-08-18
26.345,-98.92,2015-08-18
26.354,-98.087,2015-06-17
26.355,-80.76,2015-07-02
26.357,-98.211,2015-02-18
26.358,-98.787,2015-07-26
26.358,-98.783,2015-07-27
26.361,-80.779,2015-07-09
26.362,-97.784,2015-07-28
26.363,-98.781,2015-07-26
26.364,-80.479,2015-05-26
26.365,-81.464,2015-06-12
26.365,-80.738,2015-07-03
26.367,-97.79,2015-07-28
26.369,-80.393,2015-07-05
26.37,-97.751,2015-07-28
26.371,-80.743,2015-07-02
26.376,-80.744,2015-07-03
26.376,-80.737,2015-07-03
26.378,-99.048,2015-07-17
26.378,-80.395,2015-07-05
26.38,-98.927,2015-08-02
26.381,-80.404,2015-07-04
26.388,-80.396,2015-07-05
26.389,-81.384,2015-02-19
26.39,-80.784,2015-07-03
26.39,-80.493,2015-05-23
26.393,-98.266,2015-02-18
26.395,-98.215,2015-02-10
26.396,-99.093,2015-08-05
26.397,-80.806,2015-07-03
26.398,-80.796,2015-07-03
26.404,-97.981,2015-08-05
26.406,-80.807,2015-07-03
26.408,-80.787,2015-07-03
26.409,-81.006,2015-03-06
26.409,-80.444,2015-06-24
26.41,-80.457,2015-06-24
26.413,-81.622,2015-02-11
26.413,-80.965,2015-03-18
26.416,-81.296,2015-04-01
26.418,-80.477,2015-05-23
26.422,-80.464,2015-05-23
26.422,-80.173,2015-05-23
26.423,-97.918,2015-02-26
26.424,-97.912,2015-02-26
26.426,-99.143,2015-07-02
26.428,-98.438,2015-02-18
26.428,-81.01,2015-07-21
26.434,-80.482,2015-01-31
26.435,-80.79,2015-06-18
26.437,-81.722,2015-02-12
26.442,-97.911,2015-02-26
26.445,-80.79,2015-06-17
26.451,-80.551,2015-03-20
26.452,-81.293,2015-03-03
26.452,-80.564,2015-03-20
26.454,-80.814,2015-01-05
26.459,-80.683,2015-07-10
26.459,-80.521,2015-01-19
26.46,-80.688,2015-07-09
26.461,-80.675,2015-07-11
26.463,-81.296,2015-03-03
26.463,-80.673,2015-07-09
26.464,-80.816,2015-01-05
26.465,-80.67,2015-07-10
26.466,-81.28,2015-03-03
26.466,-80.871,2015-02-04
26.466,-80.803,2015-01-05
26.467,-80.861,2015-02-04
26.467,-80.859,2015-02-03
26.467,-80.694,2015-07-09
26.467,-80.686,2015-07-12
26.467,-80.678,2015-07-11
26.467,-80.677,2015-07-12
26.467,-80.674,2015-07-09
26.467,-80.67,2015-07-07
26.468,-80.684,2015-07-17
26.468,-80.683,2015-07-09
26.468,-80.676,2015-07-12
26.469,-80.675,2015-07-09
26.471,-80.69,2015-07-09
26.471,-80.674,2015-07-08
26.471,-80.674,2015-07-15
26.471,-80.673,2015-07-11
26.471,-80.67,2015-07-09
26.471,-80.668,2015-07-09
26.472,-80.681,2015-07-10
26.472,-80.681,2015-07-21
26.472,-80.679,2015-07-07
26.472,-80.676,2015-07-13
26.473,-80.702,2015-01-17
26.473,-80.672,2015-07-14
26.474,-98.134,2015-04-29
26.474,-80.687,2015-01-17
26.474,-80.672,2015-07-11
26.475,-80.68,2015-07-22
26.475,-80.667,2015-07-11
26.476,-80.886,2015-06-22
26.476,-80.677,2015-07-11
26.476,-80.67,2015-07-10
26.477,-80.686,2015-07-11
26.477,-80.674,2015-07-15
26.477,-80.668,2015-07-08
26.478,-80.826,2015-03-19
26.478,-80.68,2015-07-05
26.478,-80.68,2015-07-17
26.478,-80.667,2015-07-07
26.48,-80.677,2015-07-09
26.481,-81.295,2015-03-16
26.481,-80.819,2015-03-14
26.481,-80.81,2015-03-19
26.481,-80.726,2015-06-22
26.481,-80.686,2015-07-14
26.481,-80.674,2015-07-12
26.485,-80.891,2015-06-19
26.485,-80.89,2015-05-21
26.485,-80.885,2015-06-22
26.486,-80.793,2015-03-14
26.488,-81.013,2015-08-25
26.49,-80.799,2015-03-14
26.49,-80.759,2015-01-30
26.491,-97.866,2015-07-26
26.491,-97.714,2015-06-17
26.491,-80.449,2015-07-11
26.493,-80.816,2015-03-14
26.496,-80.426,2015-07-11
26.497,-80.429,2015-07-12
26.503,-80.438,2015-07-12
26.503,-80.4,2015-07-14
26.505,-80.685,2015-02-11
26.505,-80.211,2015-07-17
26.513,-80.761,2015-06-22
26.513,-80.494,2015-01-27
26.515,-97.283,2015-08-27
26.515,-80.506,2015-01-27
26.516,-80.957,2015-08-25
26.516,-80.685,2015-02-12
26.517,-81.857,2015-08-23
26.518,-81.857,2015-08-23
26.518,-81.857,2015-08-23
26.518,-80.425,2015-07-12
26.52,-81.862,2015-08-24
26.52,-81.862,2015-08-24
26.52,-81.862,2015-08-24
26.52,-80.413,2015-07-12
26.521,-97.285,2015-06-02
26.521,-81.279,2015-01-10
26.524,-80.578,2015-01-26
26.525,-80.718,2015-06-22
26.526,-80.61,2015-01-28
26.527,-80.6,2015-01-28
26.528,-80.865,2015-01-22
26.529,-80.809,2015-03-18
26.529,-80.572,2015-07-15
26.529,-80.42,2015-07-12
26.53,-97.718,2015-08-15
26.53,-97.718,2015-08-15
26.53,-80.679,2015-02-08
26.53,-80.574,2015-06-20
26.531,-80.971,2015-04-16
26.532,-80.423,2015-07-12
26.534,-80.896,2015-03-04
26.536,-80.418,2015-07-11
26.537,-80.452,2015-02-12
26.537,-80.253,2015-04-15
26.538,-80.824,2015-06-29
26.538,-80.647,2015-02-17
26.539,-81.302,2015-01-19
26.544,-80.82,2015-03-24
26.544,-80.279,2015-04-15
26.548,-81.304,2015-01-19
26.548,-80.637,2015-02-17
26.549,-80.718,2015-01-11
26.549,-80.505,2015-06-24
26.549,-80.422,2015-07-11
26.55,-80.25,2015-04-15
26.551,-80.729,2015-01-11
26.552,-99.021,2015-01-19
26.553,-80.452,2015-07-11
26.555,-80.811,2015-01-23
26.557,-99.029,2015-01-19
26.558,-80.463,2015-03-03
26.558,-80.429,2015-07-11
26.559,-80.716,2015-01-11
26.56,-81.955,2015-07-20
26.56,-80.641,2015-06-15
26.561,-80.687,2015-06-18
26.561,-80.644,2015-06-22
26.562,-80.629,2015-07-14
26.563,-80.926,2015-04-10
26.566,-80.455,2015-07-11
26.567,-80.814,2015-01-23
26.571,-97.322,2015-09-03
26.572,-80.628,2015-03-04
26.573,-80.92,2015-01-06
26.574,-81.851,2015-08-21
26.574,-81.851,2015-08-21
26.574,-80.6,2015-05-31
26.576,-81.307,2015-02-16
26.579,-80.44,2015-07-10
26.581,-80.917,2015-01-05
26.583,-80.433,2015-07-10
26.585,-97.326,2015-09-03
26.585,-80.438,2015-07-10
26.587,-80.434,2015-07-10
26.589,-81.222,2015-02-04
26.589,-81.036,2015-06-18
26.593,-81.248,2015-02-11
26.593,-80.791,2015-01-03
26.593,-80.584,2015-02-09
26.594,-81.238,2015-02-11
26.594,-80.523,2015-08-13
26.594,-80.523,2015-08-13
26.595,-80.781,2015-01-03
26.595,-80.443,2015-07-10
26.596,-81.228,2015-02-11
26.596,-80.525,2015-08-22
26.597,-80.896,2015-06-24
26.598,-81.554,2015-02-11
26.598,-80.859,2015-02-18
26.598,-80.516,2015-08-11
26.598,-80.516,2015-08-11
26.598,-80.516,2015-08-11
26.599,-80.561,2015-06-09
26.6,-80.89,2015-06-26
26.6,-80.817,2015-01-06
26.6,-80.567,2015-06-08
26.601,-80.889,2015-05-23
26.601,-80.543,2015-01-13
26.602,-81.249,2015-02-11
26.603,-81.547,2015-02-12
26.603,-80.783,2015-01-03
26.604,-80.891,2015-03-02
26.605,-81.558,2015-02-12
26.605,-80.936,2015-02-02
26.605,-80.905,2015-03-01
26.606,-80.894,2015-03-01
26.607,-80.86,2015-02-18
26.608,-80.777,2015-01-11
26.609,-80.532,2015-01-13
26.61,-80.788,2015-01-11
26.61,-80.655,2015-03-15
26.61,-80.542,2015-01-13
26.611,-80.76,2015-06-20
26.611,-80.628,2015-09-05
26.611,-80.424,2015-07-09
26.613,-80.758,2015-06-08
26.614,-80.769,2015-05-21
26.614,-80.757,2015-06-22
26.615,-80.768,2015-06-22
26.615,-80.626,2015-08-24
26.615,-80.626,2015-08-24
26.615,-80.626,2015-08-24
26.617,-80.631,2015-08-25
26.618,-80.849,2015-02-17
26.619,-80.856,2015-02-17
26.621,-80.971,2015-03-05
26.622,-80.595,2015-01-06
26.623,-80.87,2015-02-14
26.623,-80.501,2015-07-01
26.624,-80.944,2015-01-25
26.624,-80.5,2015-06-01
26.624,-80.412,2015-07-09
26.625,-80.557,2015-02-09
26.625,-80.5,2015-06-29
26.627,-80.478,2015-02-23
26.628,-80.916,2015-01-25
26.629,-80.53,2015-01-04
26.63,-80.772,2015-03-20
26.631,-82.037,2015-07-01
26.632,-80.407,2015-07-10
26.634,-81.772,2015-04-08
26.635,-97.349,2015-06-24
26.635,-80.663,2015-03-19
26.636,-81.784,2015-04-08
26.636,-80.157,2015-06-17
26.639,-80.587,2015-08-24
26.639,-80.587,2015-08-24
26.64,-80.85,2015-02-04
26.642,-80.783,2015-03-20
26.643,-80.864,2015-02-03
26.643,-80.673,2015-02-23
26.644,-81.362,2015-03-04
26.644,-80.684,2015-02-23
26.65,-98.848,2015-05-01
26.65,-81.495,2015-02-20
26.651,-81.485,2015-02-20
26.665,-80.469,2015-05-31
26.666,-80.47,2015-06-09
26.667,-80.916,2015-02-12
26.668,-80.938,2015-02-23
26.668,-80.729,2015-02-25
26.668,-80.462,2015-06-08
26.67,-80.505,2015-01-13
26.671,-80.514,2015-01-13
26.674,-81.45,2015-03-02
26.677,-80.713,2015-03-29
26.677,-80.477,2015-02-14
26.68,-81.272,2015-07-20
26.681,-80.922,2015-02-13
26.681,-80.638,2015-01-26
26.682,-81.277,2015-09-06
26.683,-81.271,2015-07-12
26.684,-80.419,2015-02-02
26.686,-80.618,2015-02-19
26.686,-80.439,2015-02-02
26.688,-80.935,2015-08-25
26.688,-80.934,2015-09-03
26.691,-80.937,2015-04-16
26.692,-80.358,2015-06-18
26.693,-81.281,2015-02-18
26.695,-80.87,2015-02-28
26.699,-80.482,2015-02-07
26.7,-80.493,2015-02-07
26.704,-80.846,2015-02-13
26.706,-81.394,2015-02-12
26.706,-81.367,2015-03-22
26.713,-81.349,2015-02-15
26.715,-81.02,2015-01-17
26.719,-81.053,2015-01-04
26.72,-81.381,2015-02-15
26.72,-81.36,2015-02-14
26.725,-81.366,2015-02-07
26.725,-80.897,2015-02-18
26.725,-80.474,2015-02-12
26.726,-81.378,2015-02-07
26.728,-81.309,2015-03-02
26.729,-81.32,2015-03-02
26.73,-80.988,2015-01-08
26.73,-80.969,2015-02-11
26.732,-81.373,2015-02-15
26.734,-80.557,2015-03-12
26.734,-80.535,2015-08-22
26.734,-80.535,2015-08-22
26.734,-80.535,2015-08-22
26.737,-81.133,2015-01-02
26.737,-80.539,2015-03-12
26.739,-80.598,2015-01-27
26.74,-80.969,2015-01-08
26.741,-80.607,2015-01-21
26.742,-80.614,2015-01-21
26.745,-81.677,2015-03-10
26.749,-80.516,2015-01-30
26.753,-80.644,2015-01-15
26.755,-81.987,2015-03-10
26.755,-81.782,2015-01-29
26.756,-81.439,2015-03-16
26.757,-80.652,2015-01-16
26.757,-80.652,2015-01-16
26.757,-80.632,2015-01-16
26.757,-80.632,2015-01-16
26.757,-80.606,2015-08-24
26.757,-80.606,2015-08-24
26.758,-81.806,2015-03-16
26.761,-80.604,2015-02-12
26.762,-80.616,2015-02-12
26.766,-80.466,2015-08-09
26.766,-80.466,2015-08-09
26.767,-81.805,2015-03-16
26.771,-81.968,2015-07-10
26.771,-81.716,2015-01-19
26.775,-82.004,2015-05-24
26.775,-81.976,2015-07-10
26.781,-81.981,2015-06-17
26.782,-81.708,2015-01-19
26.785,-81.587,2015-01-30
26.785,-80.555,2015-02-23
26.786,-80.563,2015-01-17
26.787,-80.686,2015-03-05
26.788,-81.529,2015-08-23
26.789,-80.663,2015-02-11
26.789,-80.39,2015-06-27
26.79,-81.601,2015-01-30
26.791,-81.224,2015-06-22
26.791,-80.548,2015-02-23
26.793,-81.584,2015-01-30
26.793,-80.561,2015-02-24
26.793,-80.473,2015-06-06
26.794,-81.059,2015-01-22
26.794,-80.655,2015-02-11
26.795,-81.017,2015-02-07
26.795,-80.475,2015-08-09
26.796,-81.029,2015-02-07
26.796,-80.474,2015-08-09
26.796,-80.474,2015-08-09
26.797,-81.528,2015-08-23
26.797,-81.101,2015-03-17
26.797,-80.599,2015-07-14
26.798,-81.107,2015-03-17
26.798,-80.598,2015-06-29
26.799,-80.561,2015-01-17
26.8,-80.356,2015-08-10
26.801,-81.885,2015-03-10
26.801,-81.604,2015-01-30
26.801,-80.59,2015-06-22
26.802,-80.6,2015-07-22
26.803,-80.645,2015-02-07
26.803,-80.599,2015-06-22
26.803,-80.588,2015-06-04
26.803,-80.587,2015-06-24
26.804,-81.871,2015-03-10
26.804,-80.601,2015-06-21
26.805,-80.656,2015-02-07
26.805,-80.6,2015-06-24
26.806,-81.571,2015-01-22
26.807,-80.594,2015-07-10
26.807,-80.591,2015-07-20
26.81,-81.867,2015-03-10
26.81,-81.524,2015-07-13
26.811,-80.361,2015-06-19
26.814,-81.873,2015-03-10
26.814,-81.066,2015-02-04
26.815,-81.1,2015-03-17
26.816,-81.105,2015-03-17
26.817,-81.781,2015-03-12
26.819,-81.763,2015-03-12
26.82,-81.415,2015-01-06
26.822,-81.426,2015-01-06
26.826,-81.863,2015-03-10
26.83,-82.176,2015-03-31
26.83,-81.357,2015-01-17
26.832,-81.626,2015-02-19
26.832,-81.59,2015-02-25
26.833,-81.577,2015-02-25
26.835,-80.353,2015-03-25
26.836,-81.13,2015-04-11
26.837,-81.854,2015-01-22
26.838,-81.866,2015-01-22
26.84,-81.779,2015-03-12
26.841,-99.322,2015-08-11
26.841,-81.165,2015-08-25
26.841,-80.588,2015-07-05
26.842,-99.322,2015-08-11
26.842,-81.749,2015-01-17
26.842,-80.582,2015-07-20
26.842,-80.542,2015-01-26
26.843,-80.59,2015-07-21
26.843,-80.586,2015-07-22
26.844,-81.349,2015-03-11
26.845,-80.587,2015-07-12
26.845,-80.587,2015-08-22
26.845,-80.587,2015-08-22
26.846,-80.588,2015-06-08
26.846,-80.588,2015-07-30
26.846,-80.588,2015-08-13
26.846,-80.588,2015-08-13
26.846,-80.588,2015-08-13
26.846,-80.587,2015-05-21
26.846,-80.587,2015-07-24
26.846,-80.586,2015-05-28
26.846,-80.579,2015-06-06
26.847,-81.922,2015-03-17
26.847,-81.338,2015-03-10
26.847,-81.198,2015-01-18
26.847,-81.191,2015-01-15
26.847,-80.585,2015-07-12
26.847,-80.575,2015-01-26
26.849,-81.585,2015-03-04
26.849,-80.591,2015-06-26
26.85,-81.908,2015-01-30
26.85,-81.893,2015-01-30
26.85,-81.882,2015-01-28
26.85,-80.586,2015-07-17
26.853,-98.909,2015-06-02
26.853,-81.891,2015-01-30
26.853,-80.533,2015-01-26
26.858,-81.93,2015-03-17
26.859,-98.222,2015-01-20
26.861,-81.677,2015-01-19
26.861,-81.46,2015-03-11
26.863,-98.034,2015-02-26
26.863,-81.439,2015-03-11
26.865,-82.182,2015-04-19
26.865,-81.893,2015-01-30
26.866,-82.193,2015-04-19
26.867,-81.444,2015-03-18
26.868,-81.613,2015-01-04
26.869,-81.669,2015-01-07
26.869,-81.623,2015-01-04
26.87,-82.189,2015-04-23
26.871,-80.425,2015-06-18
26.872,-81.9,2015-01-30
26.872,-81.441,2015-04-24
26.873,-81.914,2015-01-30
26.874,-81.445,2015-04-24
26.874,-81.445,2015-04-24
26.874,-81.326,2015-04-15
26.875,-81.632,2015-02-10
26.875,-81.186,2015-07-13
26.876,-82.312,2015-05-24
26.876,-80.527,2015-04-16
26.877,-81.802,2015-02-03
26.877,-80.516,2015-04-16
26.877,-80.395,2015-05-13
26.879,-81.943,2015-02-13
26.879,-80.376,2015-05-14
26.881,-81.82,2015-01-29
26.881,-81.804,2015-02-03
26.881,-81.797,2015-02-03
26.881,-80.387,2015-05-14
26.881,-80.368,2015-05-14
26.882,-81.136,2015-07-01
26.883,-81.959,2015-03-17
26.884,-81.61,2015-02-06
26.888,-81.643,2015-02-11
26.888,-81.339,2015-04-15
26.889,-81.332,2015-04-15
26.89,-80.564,2015-01-17
26.891,-81.851,2015-02-12
26.891,-81.759,2015-02-03
26.891,-81.618,2015-02-04
26.891,-80.407,2015-05-12
26.892,-81.7,2015-01-29
26.892,-81.608,2015-02-04
26.893,-81.893,2015-03-11
26.893,-81.861,2015-02-12
26.894,-81.786,2015-02-03
26.895,-81.835,2015-02-10
26.896,-81.921,2015-07-22
26.896,-81.901,2015-03-20
26.896,-81.798,2015-02-03
26.896,-81.646,2015-02-12
26.897,-81.913,2015-03-11
26.898,-81.916,2015-03-20
26.899,-81.636,2015-02-03
26.905,-81.83,2015-07-10
26.908,-97.835,2015-03-24
26.908,-97.795,2015-03-24
26.908,-81.942,2015-01-07
26.91,-81.796,2015-03-17
26.912,-81.919,2015-01-07
26.914,-81.814,2015-07-10
26.916,-81.829,2015-07-10
26.917,-81.871,2015-03-30
26.919,-97.805,2015-03-24
26.919,-81.795,2015-04-08
26.919,-81.756,2015-04-08
26.92,-80.565,2015-03-04
26.921,-97.977,2015-03-24
26.921,-81.787,2015-04-02
26.921,-81.768,2015-04-08
26.923,-97.633,2015-03-28
26.923,-81.878,2015-03-30
26.924,-97.954,2015-03-24
26.925,-81.909,2015-01-27
26.927,-97.94,2015-03-24
26.928,-81.776,2015-04-06
26.929,-97.951,2015-03-24
26.931,-80.563,2015-03-04
26.932,-81.421,2015-03-06
26.935,-97.963,2015-03-24
26.935,-81.93,2015-01-07
26.937,-80.555,2015-05-09
26.939,-80.576,2015-05-09
26.94,-81.144,2015-05-14
26.943,-97.639,2015-03-28
26.943,-81.136,2015-05-21
26.943,-80.58,2015-05-09
26.943,-80.558,2015-03-30
26.945,-82.318,2015-04-15
26.951,-80.574,2015-05-09
26.951,-80.56,2015-03-31
26.954,-80.569,2015-05-09
26.955,-97.728,2015-03-24
26.955,-82.273,2015-03-04
26.955,-82.264,2015-04-15
26.955,-80.58,2015-07-13
26.957,-97.704,2015-03-24
26.957,-97.418,2015-08-18
26.958,-82.277,2015-04-15
26.958,-80.444,2015-08-24
26.958,-80.444,2015-08-24
26.958,-80.443,2015-08-24
26.961,-97.697,2015-03-24
26.962,-80.564,2015-07-13
26.963,-82.29,2015-01-29
26.963,-80.573,2015-05-09
26.964,-80.524,2015-01-17
26.964,-80.452,2015-01-29
26.964,-80.307,2015-02-03
26.965,-80.578,2015-07-13
26.966,-80.461,2015-01-29
26.967,-82.26,2015-03-04
26.968,-82.284,2015-01-28
26.969,-97.73,2015-03-24
26.969,-81.823,2015-02-15
26.97,-81.847,2015-02-15
26.972,-80.577,2015-03-31
26.972,-80.466,2015-01-31
26.974,-80.332,2015-04-09
26.975,-97.699,2015-03-24
26.975,-81.847,2015-02-15
26.975,-80.462,2015-01-30
26.98,-80.564,2015-05-01
26.982,-97.731,2015-03-24
26.984,-97.707,2015-03-24
26.984,-81.629,2015-02-13
26.987,-80.541,2015-06-15
26.988,-80.552,2015-06-15
26.989,-80.563,2015-05-07
26.989,-80.108,2015-07-09
26.991,-80.562,2015-05-01
26.992,-80.112,2015-06-23
26.993,-80.118,2015-06-23
26.994,-97.752,2015-03-24
26.995,-80.579,2015-05-01
26.996,-97.763,2015-03-24
26.997,-81.13,2015-03-06
26.997,-80.542,2015-08-24
26.997,-80.542,2015-08-24
26.997,-80.542,2015-08-24
26.997,-80.11,2015-06-23
26.998,-81.725,2015-02-13
26.998,-80.592,2015-02-15
26.999,-81.851,2015-04-02
26.999,-81.119,2015-03-06
26.999,-80.561,2015-05-07
26.999,-80.11,2015-07-09
27.0,-81.836,2015-03-21
27.001,-80.109,2015-04-07
27.002,-97.89,2015-03-23
27.003,-81.846,2015-04-02
27.003,-80.096,2015-04-07
27.004,-97.816,2015-03-12
27.004,-80.118,2015-04-08
27.005,-81.732,2015-02-11
27.005,-80.99,2015-07-15
27.006,-80.098,2015-04-08
27.007,-80.143,2015-04-08
27.008,-80.578,2015-06-25
27.011,-81.665,2015-01-30
27.011,-80.139,2015-01-21
27.013,-81.681,2015-02-12
27.014,-98.896,2015-08-29
27.014,-80.143,2015-07-08
27.015,-80.108,2015-04-08
27.016,-81.015,2015-07-15
27.016,-80.178,2015-02-07
27.018,-80.991,2015-07-15
27.018,-80.122,2015-04-09
27.02,-81.097,2015-01-30
27.022,-82.306,2015-05-02
27.022,-81.876,2015-02-04
27.022,-80.402,2015-04-18
27.024,-81.061,2015-01-04
27.024,-80.392,2015-04-18
27.026,-81.071,2015-01-04
27.028,-97.811,2015-03-27
27.029,-82.301,2015-08-29
27.03,-81.109,2015-03-10
27.031,-82.3,2015-05-02
27.031,-80.623,2015-02-09
27.037,-80.618,2015-02-04
27.037,-80.211,2015-01-19
27.038,-82.305,2015-05-02
27.039,-81.626,2015-03-18
27.04,-80.206,2015-02-23
27.043,-81.276,2015-02-04
27.045,-80.411,2015-01-07
27.046,-81.387,2015-03-06
27.047,-97.654,2015-03-27
27.047,-97.615,2015-03-27
27.047,-81.566,2015-06-25
27.047,-81.55,2015-07-01
27.048,-81.545,2015-06-22
27.048,-81.319,2015-02-12
27.049,-81.517,2015-06-18
27.05,-81.63,2015-03-13
27.05,-81.532,2015-06-30
27.052,-81.54,2015-06-25
27.053,-97.624,2015-03-27
27.053,-81.524,2015-03-05
27.053,-80.434,2015-01-07
27.054,-97.617,2015-03-27
27.054,-81.628,2015-04-09
27.057,-80.43,2015-01-17
27.06,-80.45,2015-01-17
27.062,-80.227,2015-03-20
27.063,-80.239,2015-03-20
27.068,-80.43,2015-01-22
27.07,-80.441,2015-01-22
27.072,-80.627,2015-01-31
27.074,-80.633,2015-01-31
27.077,-81.507,2015-03-18
27.079,-97.675,2015-09-04
27.079,-80.202,2015-03-16
27.085,-81.078,2015-06-29
27.085,-80.653,2015-02-13
27.091,-80.405,2015-05-01
27.094,-80.423,2015-05-01
27.094,-80.217,2015-06-16
27.098,-80.652,2015-04-24
27.104,-80.205,2015-03-18
27.105,-80.416,2015-04-27
27.11,-81.747,2015-02-07
27.113,-99.012,2015-08-21
27.114,-80.418,2015-04-27
27.118,-99.011,2015-08-25
27.119,-81.188,2015-03-12
27.124,-81.151,2015-04-06
27.125,-81.601,2015-05-15
27.126,-80.426,2015-05-11
27.127,-80.416,2015-05-11
27.131,-80.409,2015-03-26
27.133,-81.625,2015-05-15
27.136,-81.606,2015-05-22
27.137,-82.335,2015-03-26
27.137,-81.61,2015-05-15
27.137,-81.606,2015-05-21
27.139,-82.273,2015-06-30
27.139,-82.228,2015-06-30
27.14,-82.351,2015-05-21
27.14,-81.613,2015-05-15
27.14,-80.384,2015-03-30
27.141,-82.34,2015-03-26
27.141,-82.05,2015-01-27
27.144,-81.609,2015-05-08
27.145,-82.027,2015-04-02
27.147,-82.263,2015-06-30
27.147,-82.254,2015-06-30
27.147,-82.233,2015-06-30
27.151,-81.96,2015-05-06
27.153,-81.255,2015-03-18
27.159,-82.289,2015-04-06
27.162,-98.084,2015-05-01
27.162,-82.295,2015-04-10
27.163,-82.29,2015-04-06
27.166,-81.374,2015-05-06
27.168,-82.269,2015-04-10
27.168,-82.151,2015-01-19
27.169,-81.146,2015-03-06
27.17,-82.279,2015-04-10
27.171,-99.195,2015-08-11
27.171,-99.195,2015-08-11
27.173,-82.3,2015-04-09
27.173,-82.278,2015-05-06
27.175,-82.289,2015-04-09
27.177,-82.282,2015-05-15
27.177,-82.264,2015-05-15
27.178,-98.588,2015-02-10
27.178,-81.151,2015-04-22
27.179,-82.462,2015-03-20
27.179,-82.305,2015-05-06
27.18,-82.258,2015-05-28
27.182,-82.268,2015-05-28
27.182,-82.04,2015-05-31
27.183,-82.47,2015-03-20
27.184,-82.019,2015-04-06
27.185,-82.447,2015-03-20
27.19,-82.401,2015-05-07
27.192,-81.674,2015-04-10
27.195,-80.58,2015-03-02
27.197,-81.116,2015-06-04
27.199,-81.127,2015-06-04
27.2,-81.653,2015-02-01
27.206,-80.498,2015-01-04
27.212,-82.176,2015-06-16
27.213,-82.165,2015-06-26
27.215,-82.164,2015-06-25
27.216,-80.725,2015-03-05
27.219,-80.534,2015-03-30
27.22,-82.291,2015-04-15
27.222,-82.171,2015-06-26
27.223,-82.166,2015-07-03
27.224,-80.51,2015-03-30
27.225,-80.527,2015-02-13
27.231,-82.094,2015-01-19
27.233,-80.623,2015-07-08
27.236,-81.799,2015-01-21
27.236,-80.518,2015-02-13
27.244,-81.441,2015-01-22
27.252,-81.01,2015-05-12
27.253,-81.439,2015-01-22
27.259,-97.859,2015-01-27
27.267,-97.848,2015-02-10
27.268,-97.864,2015-01-20
27.27,-97.865,2015-01-29
27.27,-97.861,2015-01-27
27.27,-81.45,2015-02-03
27.272,-97.849,2015-01-30
27.273,-97.878,2015-02-11
27.274,-97.87,2015-01-30
27.274,-97.86,2015-02-10
27.278,-81.274,2015-05-22
27.28,-81.278,2015-05-22
27.282,-81.802,2015-01-30
27.287,-81.28,2015-05-31
27.288,-80.562,2015-08-22
27.29,-81.287,2015-05-10
27.291,-81.147,2015-04-09
27.293,-81.137,2015-04-09
27.297,-98.156,2015-01-30
27.298,-81.912,2015-03-03
27.299,-98.135,2015-01-30
27.301,-81.137,2015-08-06
27.302,-81.922,2015-03-04
27.304,-81.951,2015-03-17
27.308,-97.87,2015-05-19
27.308,-82.359,2015-03-04
27.309,-81.145,2015-08-06
27.31,-81.452,2015-02-11
27.31,-81.146,2015-08-04
27.313,-80.465,2015-08-16
27.313,-80.464,2015-08-16
27.318,-81.136,2015-08-04
27.319,-80.758,2015-04-17
27.319,-80.591,2015-06-30
27.321,-80.598,2015-06-30
27.321,-80.579,2015-06-30
27.323,-80.282,2015-03-20
27.324,-99.033,2015-05-09
27.324,-81.956,2015-03-17
27.329,-82.385,2015-01-30
27.331,-80.28,2015-02-12
27.334,-81.969,2015-03-19
27.335,-81.964,2015-03-17
27.337,-99.045,2015-02-10
27.337,-81.952,2015-03-17
27.338,-99.02,2015-04-30
27.339,-82.002,2015-09-01
27.346,-81.861,2015-03-05
27.346,-80.44,2015-03-05
27.346,-80.311,2015-04-27
27.348,-80.68,2015-03-10
27.349,-80.686,2015-07-20
27.352,-82.529,2015-08-21
27.353,-81.178,2015-03-11
27.357,-99.06,2015-07-31
27.357,-81.172,2015-07-13
27.358,-99.074,2015-07-23
27.358,-81.176,2015-03-06
27.359,-81.607,2015-03-17
27.365,-81.358,2015-05-08
27.37,-81.174,2015-03-16
27.372,-81.34,2015-07-09
27.379,-81.079,2015-09-03
27.384,-82.261,2015-02-23
27.391,-80.453,2015-03-09
27.391,-80.387,2015-04-26
27.401,-81.605,2015-03-16
27.413,-97.928,2015-06-09
27.413,-82.37,2015-01-21
27.416,-82.371,2015-02-12
27.424,-97.623,2015-06-08
27.424,-80.503,2015-01-29
27.426,-81.188,2015-02-13
27.428,-97.936,2015-07-10
27.431,-81.554,2015-05-08
27.432,-97.944,2015-07-13
27.434,-97.712,2015-05-14
27.434,-81.02,2015-03-18
27.436,-81.84,2015-01-19
27.437,-81.558,2015-05-08
27.438,-80.672,2015-06-18
27.46,-80.685,2015-03-10
27.462,-81.572,2015-03-22
27.462,-80.674,2015-03-10
27.463,-80.679,2015-03-10
27.464,-81.561,2015-03-22
27.467,-99.626,2015-07-04
27.467,-81.129,2015-03-19
27.467,-81.127,2015-03-30
27.468,-99.627,2015-05-15
27.47,-99.623,2015-07-17
27.484,-81.15,2015-02-20
27.493,-82.23,2015-06-04
27.493,-82.216,2015-06-30
27.495,-82.24,2015-06-04
27.498,-80.568,2015-07-13
27.499,-97.588,2015-08-13
27.499,-97.588,2015-08-13
27.499,-82.196,2015-07-03
27.5,-82.221,2015-06-30
27.5,-82.177,2015-06-30
27.5,-80.842,2015-03-06
27.502,-80.57,2015-07-14
27.503,-80.574,2015-07-11
27.503,-80.565,2015-07-09
27.508,-82.212,2015-06-30
27.508,-81.412,2015-05-02
27.508,-81.132,2015-04-02
27.509,-81.31,2015-05-31
27.509,-80.574,2015-07-03
27.509,-80.552,2015-04-15
27.51,-81.402,2015-05-02
27.514,-82.23,2015-05-23
27.515,-82.189,2015-06-24
27.522,-80.566,2015-07-01
27.524,-80.565,2015-06-26
27.524,-80.565,2015-06-27
27.524,-80.56,2015-06-25
27.526,-80.567,2015-06-25
27.528,-80.573,2015-06-25
27.53,-80.569,2015-06-09
27.533,-82.192,2015-01-27
27.536,-81.296,2015-05-11
27.539,-82.304,2015-07-20
27.54,-82.18,2015-01-27
27.541,-98.649,2015-03-29
27.541,-82.318,2015-07-20
27.543,-82.175,2015-01-29
27.543,-81.308,2015-05-11
27.544,-82.359,2015-02-19
27.544,-82.186,2015-01-29
27.545,-81.298,2015-05-11
27.545,-81.041,2015-05-11
27.546,-81.307,2015-03-05
27.546,-81.288,2015-05-11
27.546,-81.272,2015-03-05
27.547,-80.97,2015-04-08
27.549,-82.302,2015-07-20
27.549,-80.983,2015-04-08
27.553,-82.329,2015-07-20
27.553,-80.766,2015-01-07
27.554,-81.3,2015-05-11
27.554,-81.296,2015-05-12
27.557,-81.303,2015-03-09
27.557,-81.023,2015-05-11
27.558,-81.26,2015-03-04
27.563,-97.458,2015-06-15
27.565,-81.292,2015-03-13
27.565,-81.034,2015-05-11
27.566,-81.301,2015-03-09
27.567,-81.122,2015-04-02
27.569,-97.972,2015-04-30
27.57,-80.86,2015-03-06
27.575,-81.3,2015-03-09
27.579,-81.261,2015-05-06
27.582,-82.14,2015-02-03
27.582,-81.27,2015-02-12
27.584,-81.122,2015-02-23
27.586,-81.276,2015-05-07
27.586,-81.126,2015-03-12
27.587,-81.883,2015-03-09
27.592,-97.922,2015-04-08
27.595,-80.404,2015-03-18
27.597,-81.277,2015-05-07
27.598,-81.164,2015-02-11
27.602,-81.168,2015-02-20
27.605,-99.524,2015-06-17
27.605,-81.241,2015-05-08
27.607,-81.165,2015-02-11
27.608,-81.155,2015-02-11
27.609,-81.18,2015-02-20
27.611,-81.277,2015-05-04
27.611,-81.17,2015-02-20
27.612,-81.26,2015-05-07
27.614,-99.526,2015-08-21
27.614,-99.526,2015-08-21
27.614,-99.526,2015-08-21
27.614,-99.478,2015-08-12
27.616,-99.514,2015-08-21
27.616,-99.514,2015-08-21
27.616,-99.514,2015-08-21
27.616,-81.25,2015-05-08
27.617,-99.516,2015-04-30
27.617,-98.417,2015-08-30
27.617,-80.555,2015-08-06
27.618,-81.793,2015-06-09
27.62,-99.508,2015-02-25
27.622,-82.06,2015-04-15
27.623,-82.121,2015-07-13
27.623,-82.057,2015-04-22
27.623,-81.296,2015-04-02
27.624,-80.558,2015-08-07
27.624,-80.558,2015-08-07
27.624,-80.558,2015-08-07
27.625,-80.826,2015-04-16
27.627,-82.064,2015-04-10
27.629,-81.208,2015-05-16
27.63,-82.411,2015-05-24
27.63,-81.253,2015-05-08
27.631,-99.881,2015-08-10
27.633,-99.873,2015-08-10
27.637,-82.482,2015-01-22
27.638,-81.324,2015-04-21
27.64,-81.048,2015-06-06
27.64,-80.989,2015-07-02
27.649,-81.283,2015-03-03
27.651,-82.464,2015-01-22
27.651,-82.399,2015-06-30
27.659,-81.231,2015-03-17
27.66,-81.221,2015-03-17
27.661,-81.94,2015-02-03
27.662,-81.286,2015-02-16
27.664,-81.643,2015-01-30
27.667,-81.626,2015-01-30
27.667,-81.589,2015-03-16
27.668,-81.233,2015-03-17
27.669,-82.291,2015-06-25
27.669,-81.927,2015-02-03
27.669,-80.901,2015-07-13
27.671,-81.293,2015-02-16
27.672,-82.523,2015-02-17
27.672,-81.418,2015-07-09
27.674,-82.415,2015-04-01
27.675,-81.352,2015-05-01
27.676,-99.456,2015-04-28
27.677,-80.488,2015-03-15
27.678,-80.477,2015-03-15
27.68,-99.453,2015-05-01
27.681,-80.971,2015-01-30
27.681,-80.913,2015-07-13
27.682,-99.457,2015-04-30
27.682,-99.454,2015-07-03
27.683,-81.334,2015-05-01
27.683,-80.954,2015-04-07
27.688,-99.951,2015-08-25
27.688,-80.825,2015-06-25
27.69,-99.455,2015-05-01
27.691,-81.04,2015-03-19
27.692,-82.296,2015-01-07
27.692,-82.289,2015-01-07
27.692,-81.29,2015-04-15
27.692,-80.819,2015-06-25
27.694,-80.991,2015-01-28
27.695,-80.812,2015-06-30
27.696,-80.98,2015-01-28
27.697,-82.002,2015-03-09
27.697,-80.581,2015-02-24
27.701,-82.295,2015-01-07
27.703,-80.992,2015-01-28
27.703,-80.608,2015-02-24
27.704,-81.002,2015-06-30
27.705,-80.985,2015-06-30
27.705,-80.96,2015-07-01
27.706,-81.288,2015-03-14
27.706,-80.602,2015-02-24
27.708,-80.979,2015-06-30
27.709,-81.249,2015-03-29
27.715,-81.442,2015-05-01
27.715,-81.398,2015-01-08
27.719,-81.331,2015-05-13
27.719,-81.3,2015-03-14
27.72,-81.876,2015-04-10
27.72,-81.594,2015-05-31
27.72,-81.382,2015-01-07
27.721,-81.772,2015-02-13
27.721,-81.318,2015-05-13
27.724,-81.811,2015-01-03
27.724,-81.253,2015-05-28
27.725,-81.33,2015-03-06
27.726,-98.916,2015-03-12
27.727,-82.27,2015-04-04
27.728,-81.809,2015-02-14
27.73,-98.921,2015-03-05
27.734,-81.332,2015-03-06
27.735,-81.087,2015-03-16
27.738,-80.717,2015-04-07
27.739,-81.746,2015-02-11
27.742,-82.433,2015-04-09
27.743,-81.09,2015-03-16
27.745,-81.101,2015-03-16
27.753,-81.639,2015-01-07
27.753,-81.622,2015-02-08
27.756,-81.434,2015-07-05
27.765,-82.032,2015-07-15
27.767,-82.181,2015-03-04
27.767,-81.763,2015-05-08
27.773,-81.756,2015-05-08
27.774,-81.752,2015-04-02
27.778,-81.504,2015-02-18
27.781,-81.022,2015-05-13
27.783,-82.277,2015-04-01
27.784,-81.826,2015-01-07
27.785,-80.903,2015-03-18
27.787,-81.86,2015-06-21
27.789,-82.285,2015-04-01
27.792,-81.037,2015-05-18
27.793,-81.027,2015-05-18
27.794,-80.951,2015-06-24
27.796,-81.854,2015-06-27
27.796,-81.853,2015-05-03
27.8,-81.123,2015-03-05
27.8,-80.944,2015-06-16
27.801,-81.142,2015-03-05
27.804,-81.016,2015-05-27
27.805,-80.97,2015-06-16
27.807,-80.878,2015-06-30
27.808,-82.167,2015-03-18
27.808,-81.167,2015-03-17
27.81,-82.191,2015-03-17
27.811,-97.578,2015-06-09
27.812,-81.674,2015-03-08
27.812,-81.146,2015-03-17
27.813,-97.585,2015-06-09
27.816,-81.164,2015-03-17
27.818,-81.153,2015-03-17
27.819,-97.094,2015-02-08
27.82,-98.077,2015-09-03
27.82,-80.856,2015-06-30
27.822,-81.14,2015-04-07
27.824,-81.331,2015-04-10
27.825,-81.341,2015-04-10
27.826,-80.841,2015-06-30
27.829,-81.147,2015-03-20
27.834,-80.853,2015-06-30
27.836,-80.96,2015-05-04
27.836,-80.953,2015-05-01
27.836,-80.883,2015-06-30
27.836,-80.867,2015-04-01
27.839,-80.54,2015-05-08
27.842,-80.954,2015-05-07
27.843,-80.562,2015-05-08
27.844,-81.137,2015-04-07
27.844,-80.908,2015-04-08
27.844,-80.673,2015-06-09
27.848,-80.925,2015-04-07
27.85,-82.492,2015-08-21
27.851,-80.552,2015-05-08
27.851,-80.537,2015-05-08
27.853,-81.146,2015-02-23
27.854,-80.956,2015-05-07
27.854,-80.575,2015-02-13
27.856,-81.584,2015-02-12
27.856,-81.166,2015-03-06
27.856,-80.565,2015-02-13
27.859,-80.615,2015-06-15
27.86,-81.179,2015-05-21
27.861,-81.177,2015-05-15
27.863,-81.167,2015-05-14
27.864,-98.069,2015-02-26
27.864,-80.534,2015-05-08
27.868,-80.555,2015-05-08
27.875,-98.06,2015-02-26
27.877,-81.443,2015-08-12
27.882,-81.324,2015-05-11
27.886,-97.741,2015-02-08
27.892,-81.005,2015-03-18
27.895,-80.564,2015-06-21
27.896,-82.329,2015-04-25
27.898,-80.736,2015-05-04
27.899,-81.789,2015-03-20
27.899,-81.02,2015-07-22
27.903,-82.154,2015-04-03
27.904,-81.071,2015-03-12
27.911,-81.121,2015-05-01
27.912,-81.097,2015-06-18
27.913,-82.042,2015-02-10
27.914,-81.105,2015-06-24
27.915,-81.031,2015-08-05
27.92,-81.125,2015-05-01
27.92,-81.001,2015-08-05
27.921,-81.119,2015-05-01
27.923,-82.11,2015-05-08
27.923,-81.017,2015-08-05
27.926,-82.126,2015-05-08
27.926,-81.143,2015-05-06
27.932,-82.188,2015-04-24
27.934,-82.494,2015-06-18
27.936,-81.127,2015-05-21
27.937,-81.145,2015-05-06
27.94,-81.028,2015-06-16
27.943,-81.807,2015-03-04
27.944,-81.358,2015-05-08
27.945,-81.013,2015-07-03
27.947,-81.015,2015-06-24
27.949,-81.786,2015-08-05
27.949,-81.015,2015-06-16
27.949,-81.014,2015-06-21
27.95,-81.357,2015-03-18
27.95,-81.016,2015-06-17
27.952,-81.78,2015-08-21
27.953,-81.37,2015-05-08
27.955,-81.175,2015-05-22
27.956,-81.012,2015-06-16
27.958,-81.099,2015-05-07
27.959,-81.447,2015-03-16
27.96,-81.113,2015-05-07
27.961,-81.135,2015-05-22
27.965,-81.055,2015-07-02
27.968,-81.167,2015-05-22
27.969,-81.036,2015-07-02
27.97,-81.061,2015-07-02
27.973,-81.1,2015-04-29
27.973,-81.043,2015-07-02
27.975,-81.045,2015-07-02
27.976,-98.459,2015-08-18
27.976,-98.459,2015-08-18
27.976,-98.458,2015-08-18
27.976,-81.153,2015-03-31
27.977,-81.106,2015-04-29
27.977,-81.085,2015-07-01
27.978,-81.491,2015-03-20
27.978,-81.49,2015-03-17
27.978,-81.484,2015-03-12
27.979,-82.215,2015-06-09
27.98,-81.108,2015-07-01
27.986,-81.154,2015-03-31
27.986,-81.113,2015-07-01
27.987,-81.144,2015-03-31
27.988,-81.065,2015-04-10
27.989,-81.106,2015-07-01
27.99,-81.107,2015-07-01
27.996,-80.986,2015-04-01
27.996,-80.963,2015-05-21
27.998,-81.074,2015-04-10
27.999,-82.394,2015-06-20
28.002,-81.137,2015-04-09
28.004,-81.117,2015-04-09
28.005,-80.984,2015-04-01
28.005,-80.962,2015-03-18
28.006,-80.973,2015-03-18
28.007,-80.589,2015-06-17
28.01,-81.495,2015-06-18
28.012,-80.974,2015-03-05
28.013,-80.929,2015-05-01
28.016,-80.996,2015-03-10
28.016,-80.994,2015-03-05
28.016,-80.945,2015-05-01
28.018,-80.984,2015-03-10
28.024,-80.927,2015-05-01
28.033,-80.918,2015-05-08
28.034,-82.658,2015-08-10
28.036,-80.938,2015-05-08
28.037,-80.905,2015-02-04
28.044,-81.989,2015-08-23
28.044,-81.989,2015-08-23
28.045,-80.915,2015-05-08
28.047,-80.909,2015-05-08
28.048,-81.142,2015-01-21
28.051,-80.929,2015-05-08
28.053,-82.275,2015-07-30
28.057,-80.987,2015-07-08
28.061,-81.017,2015-03-30
28.061,-80.932,2015-05-08
28.063,-81.149,2015-03-14
28.065,-81.148,2015-04-07
28.065,-80.983,2015-06-18
28.066,-81.164,2015-03-14
28.066,-80.951,2015-06-25
28.066,-80.932,2015-04-30
28.067,-82.423,2015-08-12
28.068,-80.711,2015-04-08
28.07,-81.135,2015-04-08
28.07,-80.781,2015-08-07
28.074,-97.956,2015-03-27
28.074,-81.498,2015-06-09
28.074,-81.376,2015-04-08
28.077,-80.93,2015-04-30
28.078,-81.385,2015-04-08
28.078,-81.368,2015-04-08
28.102,-81.047,2015-06-24
28.102,-80.945,2015-04-30
28.106,-80.972,2015-03-12
28.108,-80.952,2015-03-12
28.109,-81.242,2015-03-17
28.109,-81.043,2015-03-05
28.11,-81.031,2015-04-03
28.111,-81.231,2015-03-17
28.12,-80.968,2015-03-12
28.121,-81.02,2015-05-07
28.123,-81.034,2015-05-07
28.13,-81.048,2015-05-07
28.132,-81.018,2015-05-07
28.133,-81.033,2015-05-07
28.14,-97.622,2015-08-24
28.143,-82.171,2015-04-09
28.144,-82.226,2015-05-11
28.175,-96.902,2015-01-25
28.177,-81.909,2015-03-17
28.179,-81.729,2015-01-28
28.182,-82.417,2015-08-12
28.184,-97.423,2015-08-11
28.184,-97.423,2015-08-11
28.195,-97.212,2015-06-01
28.205,-81.095,2015-04-10
28.205,-80.763,2015-05-18
28.207,-99.363,2015-07-06
28.208,-81.949,2015-06-25
28.212,-82.737,2015-08-21
28.229,-97.498,2015-08-25
28.234,-82.205,2015-08-21
28.235,-81.118,2015-06-14
28.242,-80.843,2015-06-24
28.244,-97.358,2015-09-03
28.244,-96.96,2015-08-17
28.245,-82.01,2015-03-10
28.245,-81.998,2015-03-13
28.248,-81.852,2015-04-04
28.249,-81.105,2015-05-29
28.25,-96.96,2015-08-17
28.25,-82.336,2015-05-10
28.258,-96.591,2015-01-28
28.258,-81.127,2015-05-28
28.262,-82.553,2015-05-28
28.263,-82.564,2015-05-28
28.264,-96.583,2015-01-28
28.265,-96.568,2015-01-28
28.284,-81.123,2015-03-17
28.286,-81.112,2015-03-17
28.294,-82.164,2015-05-19
28.294,-81.125,2015-03-17
28.303,-81.126,2015-03-18
28.311,-81.123,2015-02-12
28.313,-81.907,2015-07-09
28.313,-81.139,2015-07-09
28.32,-82.086,2015-04-22
28.323,-81.141,2015-07-09
28.334,-96.981,2015-08-05
28.336,-99.273,2015-07-08
28.337,-100.818,2015-07-18
28.338,-81.954,2015-02-13
28.34,-81.943,2015-02-13
28.342,-82.081,2015-04-08
28.343,-81.718,2015-05-01
28.348,-81.211,2015-03-20
28.362,-82.078,2015-04-08
28.363,-81.099,2015-07-11
28.369,-81.451,2015-05-21
28.371,-97.054,2015-08-15
28.371,-97.054,2015-08-15
28.375,-97.701,2015-02-18
28.385,-81.934,2015-03-31
28.395,-98.885,2015-04-29
28.395,-81.284,2015-07-13
28.399,-99.853,2015-08-17
28.399,-81.913,2015-01-21
28.4,-81.277,2015-07-15
28.401,-81.9,2015-01-21
28.401,-81.275,2015-07-08
28.404,-98.782,2015-01-28
28.404,-81.396,2015-07-13
28.406,-81.729,2015-04-08
28.408,-81.821,2015-03-15
28.417,-80.666,2015-04-11
28.419,-81.209,2015-03-16
28.421,-81.215,2015-03-09
28.423,-80.672,2015-06-19
28.427,-80.672,2015-04-09
28.434,-80.96,2015-04-09
28.435,-81.615,2015-02-12
28.439,-82.052,2015-01-28
28.441,-82.04,2015-01-28
28.443,-80.961,2015-04-09
28.444,-80.951,2015-04-09
28.448,-82.054,2015-01-28
28.45,-80.853,2015-03-18
28.451,-80.935,2015-07-02
28.459,-81.623,2015-02-07
28.462,-81.631,2015-01-29
28.463,-81.635,2015-01-28
28.467,-81.676,2015-03-04
28.468,-81.687,2015-03-03
28.468,-81.68,2015-03-03
28.469,-100.008,2015-08-11
28.472,-81.632,2015-02-11
28.478,-96.952,2015-01-27
28.478,-80.907,2015-03-16
28.481,-98.043,2015-03-29
28.483,-81.549,2015-07-13
28.5,-98.893,2015-03-05
28.501,-98.883,2015-03-05
28.501,-82.211,2015-07-06
28.519,-80.986,2015-03-17
28.524,-80.989,2015-03-18
28.526,-81.0,2015-03-18
28.527,-98.88,2015-06-26
28.528,-99.261,2015-08-03
28.528,-99.254,2015-08-05
28.528,-99.25,2015-08-22
28.528,-99.25,2015-08-22
28.529,-99.262,2015-08-22
28.529,-99.262,2015-08-22
28.529,-99.262,2015-08-22
28.531,-99.26,2015-06-10
28.532,-99.27,2015-06-10
28.533,-99.27,2015-06-02
28.533,-99.254,2015-07-28
28.533,-82.272,2015-03-03
28.534,-99.257,2015-08-04
28.534,-99.248,2015-03-28
28.54,-99.243,2015-03-13
28.544,-82.263,2015-03-03
28.544,-80.571,2015-04-30
28.547,-97.018,2015-02-10
28.55,-82.201,2015-03-30
28.55,-80.58,2015-05-03
28.551,-81.041,2015-04-30
28.556,-97.418,2015-09-03
28.562,-80.681,2015-03-31
28.564,-82.284,2015-08-12
28.564,-82.284,2015-08-12
28.564,-82.264,2015-02-20
28.565,-97.064,2015-08-13
28.566,-80.575,2015-05-31
28.57,-80.693,2015-03-31
28.572,-80.98,2015-06-17
28.575,-82.282,2015-08-12
28.575,-82.282,2015-08-12
28.575,-81.806,2015-03-28
28.576,-100.597,2015-06-02
28.58,-99.779,2015-06-18
28.585,-99.34,2015-02-11
28.586,-80.893,2015-03-18
28.587,-80.886,2015-03-18
28.592,-80.98,2015-06-17
28.593,-82.458,2015-06-01
28.593,-81.042,2015-01-28
28.595,-82.464,2015-06-01
28.596,-81.021,2015-01-28
28.597,-80.872,2015-03-16
28.597,-80.872,2015-05-08
28.598,-97.008,2015-08-14
28.6,-81.049,2015-01-28
28.601,-81.038,2015-01-28
28.602,-80.884,2015-03-18
28.604,-82.565,2015-05-28
28.606,-82.457,2015-06-01
28.606,-82.44,2015-06-01
28.611,-80.726,2015-02-14
28.612,-81.922,2015-03-18
28.614,-82.323,2015-03-04
28.615,-80.901,2015-06-15
28.616,-80.67,2015-06-23
28.617,-80.913,2015-06-15
28.62,-80.906,2015-06-15
28.621,-81.046,2015-03-17
28.623,-99.001,2015-03-13
28.623,-81.035,2015-03-17
28.633,-99.003,2015-03-13
28.633,-82.296,2015-04-06
28.633,-81.949,2015-06-20
28.634,-82.278,2015-04-10
28.636,-81.954,2015-02-13
28.638,-99.947,2015-05-02
28.638,-80.883,2015-01-21
28.641,-82.266,2015-04-10
28.642,-82.276,2015-04-10
28.643,-81.945,2015-04-15
28.645,-97.75,2015-07-15
28.652,-97.72,2015-07-17
28.658,-97.746,2015-08-31
28.658,-80.711,2015-02-16
28.659,-97.757,2015-08-31
28.659,-81.043,2015-03-17
28.666,-80.705,2015-02-16
28.668,-82.532,2015-02-12
28.672,-82.556,2015-03-03
28.683,-82.422,2015-04-03
28.684,-80.967,2015-06-28
28.685,-82.422,2015-01-28
28.687,-82.411,2015-01-28
28.687,-80.924,2015-08-07
28.687,-80.924,2015-08-07
28.687,-80.924,2015-08-07
28.69,-82.425,2015-01-30
28.695,-80.906,2015-05-27
28.696,-80.896,2015-05-27
28.704,-82.437,2015-03-04
28.706,-82.421,2015-03-04
28.719,-81.647,2015-01-08
28.721,-96.977,2015-06-01
28.723,-82.408,2015-02-06
28.724,-81.642,2015-01-08
28.728,-82.379,2015-03-13
28.737,-82.393,2015-03-13
28.738,-82.381,2015-03-13
28.738,-81.5,2015-03-31
28.739,-82.388,2015-03-13
28.745,-81.509,2015-02-13
28.746,-96.164,2015-07-08
28.749,-96.147,2015-07-08
28.75,-96.16,2015-07-08
28.751,-99.82,2015-04-30
28.753,-97.063,2015-08-06
28.773,-82.312,2015-01-29
28.774,-95.774,2015-06-03
28.776,-81.528,2015-01-30
28.786,-82.338,2015-05-04
28.787,-98.734,2015-05-19
28.788,-81.963,2015-06-18
28.788,-81.074,2015-04-03
28.79,-81.099,2015-02-13
28.793,-95.755,2015-02-12
28.794,-82.413,2015-01-27
28.795,-82.412,2015-03-10
28.795,-82.378,2015-05-04
28.795,-81.471,2015-01-21
28.796,-82.423,2015-01-27
28.798,-99.12,2015-02-25
28.799,-82.452,2015-03-30
28.799,-82.447,2015-03-30
28.8,-96.835,2015-03-14
28.801,-95.768,2015-02-12
28.801,-82.465,2015-03-30
28.801,-82.459,2015-03-30
28.802,-82.482,2015-04-03
28.804,-82.472,2015-03-30
28.805,-82.464,2015-03-20
28.808,-82.474,2015-03-10
28.809,-81.159,2015-06-17
28.81,-82.458,2015-02-12
28.813,-82.463,2015-02-12
28.813,-81.158,2015-06-16
28.814,-81.672,2015-05-31
28.818,-81.961,2015-01-03
28.819,-82.167,2015-06-25
28.821,-82.441,2015-04-30
28.822,-95.642,2015-08-04
28.823,-82.429,2015-04-30
28.825,-95.629,2015-08-04
28.828,-98.628,2015-06-25
28.83,-97.66,2015-09-05
28.83,-95.626,2015-08-04
28.832,-97.892,2015-07-28
28.832,-95.64,2015-08-04
28.832,-82.418,2015-02-11
28.833,-82.408,2015-02-11
28.839,-95.601,2015-04-02
28.841,-95.612,2015-04-02
28.852,-99.45,2015-06-08
28.863,-97.865,2015-01-28
28.864,-82.392,2015-06-12
28.866,-96.236,2015-02-12
28.868,-97.871,2015-01-28
28.876,-81.901,2015-01-21
28.883,-95.439,2015-02-02
28.885,-81.733,2015-05-22
28.894,-96.376,2015-08-03
28.895,-96.363,2015-08-03
28.909,-98.797,2015-01-19
28.913,-81.451,2015-04-03
28.917,-82.256,2015-05-07
28.923,-98.663,2015-07-12
28.925,-97.301,2015-03-14
28.929,-81.093,2015-06-14
28.931,-82.308,2015-02-11
28.94,-82.322,2015-05-06
28.94,-82.309,2015-02-11
28.941,-82.245,2015-05-01
28.943,-80.963,2015-05-12
28.944,-82.325,2015-05-07
28.947,-100.659,2015-03-12
28.948,-82.342,2015-05-06
28.95,-80.954,2015-06-15
28.951,-82.325,2015-05-06
28.952,-80.946,2015-05-28
28.953,-97.41,2015-02-07
28.955,-82.263,2015-03-31
28.957,-97.176,2015-02-08
28.961,-82.283,2015-03-04
28.968,-97.837,2015-06-24
28.97,-98.381,2015-08-04
28.972,-95.358,2015-07-18
28.974,-95.341,2015-07-19
28.978,-95.353,2015-03-07
28.983,-97.462,2015-04-21
28.987,-95.351,2015-08-20
28.988,-82.39,2015-01-30
28.991,-97.449,2015-01-19
28.991,-81.465,2015-02-11
28.992,-95.472,2015-08-19
28.992,-95.472,2015-08-19
28.992,-95.472,2015-08-19
28.993,-81.621,2015-07-29
28.996,-96.254,2015-02-13
28.996,-95.469,2015-08-28
28.996,-81.788,2015-08-06
29.003,-97.453,2015-08-06
29.006,-97.442,2015-01-18
29.011,-82.365,2015-01-28
29.015,-82.304,2015-01-07
29.017,-81.426,2015-02-01
29.022,-97.686,2015-03-27
29.023,-82.331,2015-03-10
29.026,-82.317,2015-03-10
29.026,-82.301,2015-05-07
29.03,-81.42,2015-02-01
29.032,-82.301,2015-05-21
29.034,-81.441,2015-04-04
29.034,-81.424,2015-02-01
29.047,-81.579,2015-08-05
29.048,-81.362,2015-01-31
29.05,-81.593,2015-08-05
29.05,-81.516,2015-03-04
29.063,-81.605,2015-08-05
29.071,-95.742,2015-03-17
29.072,-98.32,2015-06-06
29.072,-95.76,2015-08-02
29.075,-95.749,2015-08-13
29.076,-95.745,2015-03-17
29.077,-98.297,2015-06-06
29.078,-95.753,2015-08-04
29.08,-95.761,2015-08-03
29.097,-99.392,2015-06-02
29.097,-97.652,2015-07-27
29.104,-81.138,2015-01-28
29.11,-82.584,2015-01-08
29.112,-81.46,2015-01-28
29.113,-82.624,2015-05-10
29.114,-97.384,2015-06-15
29.118,-81.409,2015-01-28
29.119,-99.712,2015-07-10
29.12,-82.585,2015-01-08
29.12,-81.444,2015-01-28
29.121,-99.756,2015-08-03
29.121,-82.565,2015-01-28
29.123,-81.505,2015-01-28
29.126,-81.412,2015-01-28
29.127,-82.612,2015-01-08
29.127,-82.548,2015-01-28
29.128,-99.753,2015-06-13
29.128,-97.606,2015-08-03
29.129,-99.758,2015-08-03
29.129,-82.599,2015-01-08
29.129,-81.455,2015-01-28
29.13,-95.309,2015-02-26
29.131,-97.343,2015-03-30
29.131,-81.435,2015-01-28
29.133,-82.575,2015-01-27
29.133,-81.424,2015-01-28
29.134,-97.606,2015-07-20
29.138,-81.029,2015-04-07
29.139,-95.311,2015-02-26
29.141,-99.756,2015-06-13
29.141,-81.155,2015-03-09
29.143,-81.482,2015-01-28
29.144,-99.75,2015-06-13
29.146,-99.733,2015-06-13
29.146,-97.577,2015-01-28
29.148,-97.591,2015-01-28
29.149,-96.167,2015-09-03
29.151,-95.278,2015-02-02
29.152,-99.481,2015-06-15
29.164,-97.429,2015-04-21
29.164,-81.563,2015-03-10
29.168,-96.496,2015-09-06
29.173,-81.553,2015-03-10
29.18,-99.761,2015-07-20
29.185,-97.594,2015-07-06
29.189,-82.617,2015-01-28
29.191,-82.605,2015-01-28
29.191,-81.368,2015-01-07
29.202,-82.596,2015-01-28
29.204,-81.208,2015-01-28
29.205,-82.071,2015-07-18
29.208,-81.949,2015-03-14
29.212,-96.632,2015-01-20
29.217,-96.627,2015-01-20
29.218,-81.947,2015-03-14
29.225,-81.952,2015-01-28
29.227,-100.789,2015-03-12
29.229,-82.691,2015-06-27
29.229,-81.39,2015-06-19
29.233,-81.199,2015-01-28
29.234,-82.697,2015-05-10
29.235,-100.805,2015-03-12
29.242,-81.473,2015-01-22
29.245,-100.802,2015-08-06
29.246,-98.378,2015-06-24
29.246,-91.226,2015-01-31
29.248,-100.804,2015-08-06
29.251,-82.53,2015-03-08
29.252,-98.459,2015-01-17
29.254,-82.598,2015-01-10
29.255,-100.8,2015-08-06
29.258,-100.806,2015-08-06
29.262,-81.908,2015-01-19
29.264,-97.387,2015-06-02
29.264,-81.897,2015-01-19
29.272,-81.889,2015-01-22
29.273,-97.598,2015-01-27
29.277,-82.519,2015-08-21
29.278,-82.459,2015-05-01
29.279,-99.563,2015-06-15
29.283,-83.061,2015-02-11
29.284,-82.904,2015-01-22
29.29,-98.996,2015-06-25
29.293,-98.035,2015-06-08
29.293,-82.912,2015-05-01
29.294,-97.834,2015-02-12
29.294,-94.813,2015-06-12
29.301,-98.4,2015-03-05
29.31,-81.48,2015-07-01
29.313,-81.781,2015-08-10
29.314,-97.629,2015-01-28
29.316,-97.608,2015-01-28
29.32,-100.289,2015-04-02
29.321,-82.291,2015-02-13
29.323,-99.709,2015-08-12
29.323,-82.279,2015-02-13
29.324,-99.678,2015-06-24
29.324,-81.803,2015-08-26
29.325,-99.698,2015-08-12
29.327,-81.777,2015-08-10
29.329,-99.702,2015-07-12
29.332,-99.711,2015-08-12
29.335,-82.6,2015-05-21
29.335,-82.07,2015-03-17
29.339,-82.371,2015-05-21
29.34,-91.247,2015-02-08
29.34,-82.593,2015-05-07
29.343,-82.368,2015-06-04
29.344,-82.749,2015-05-21
29.345,-82.787,2015-06-18
29.35,-91.246,2015-02-08
29.351,-100.473,2015-01-15
29.359,-83.05,2015-06-21
29.36,-83.05,2015-06-20
29.36,-83.045,2015-06-13
29.363,-83.059,2015-05-29
29.363,-81.465,2015-02-12
29.364,-82.837,2015-01-06
29.366,-83.053,2015-05-29
29.367,-82.45,2015-06-03
29.368,-98.777,2015-01-19
29.368,-98.773,2015-04-01
29.368,-90.834,2015-01-28
29.369,-98.76,2015-04-01
29.379,-99.618,2015-07-20
29.38,-97.736,2015-01-25
29.381,-99.606,2015-07-20
29.383,-82.755,2015-03-31
29.386,-82.771,2015-04-01
29.388,-99.62,2015-07-20
29.393,-100.126,2015-07-21
29.395,-100.135,2015-07-20
29.397,-100.133,2015-06-09
29.398,-91.078,2015-03-07
29.399,-91.145,2015-02-28
29.4,-91.064,2015-03-07
29.404,-99.143,2015-03-06
29.408,-83.125,2015-05-04
29.422,-81.654,2015-07-06
29.424,-99.674,2015-01-28
29.427,-99.682,2015-01-28
29.429,-82.493,2015-01-06
29.431,-82.473,2015-01-06
29.433,-90.736,2015-07-23
29.434,-82.501,2015-01-06
29.435,-90.748,2015-07-23
29.436,-82.481,2015-01-06
29.452,-81.806,2015-05-02
29.453,-82.44,2015-07-22
29.459,-81.858,2015-05-03
29.461,-81.853,2015-05-03
29.462,-91.036,2015-02-12
29.463,-99.48,2015-06-06
29.464,-90.922,2015-02-12
29.464,-81.828,2015-05-03
29.465,-90.827,2015-05-20
29.466,-90.822,2015-07-16
29.467,-97.799,2015-02-08
29.468,-97.787,2015-02-08
29.468,-96.269,2015-01-27
29.468,-95.208,2015-03-26
29.468,-90.833,2015-07-16
29.469,-90.826,2015-06-05
29.473,-90.91,2015-02-13
29.474,-90.825,2015-05-20
29.476,-99.017,2015-01-27
29.476,-95.205,2015-04-29
29.477,-96.271,2015-01-27
29.478,-96.108,2015-07-13
29.478,-90.868,2015-02-02
29.479,-90.881,2015-02-13
29.481,-99.042,2015-01-27
29.482,-99.021,2015-01-15
29.482,-90.905,2015-02-13
29.484,-81.651,2015-01-06
29.486,-81.657,2015-01-06
29.487,-90.992,2015-02-12
29.488,-99.506,2015-04-27
29.489,-90.98,2015-02-12
29.494,-90.852,2015-02-02
29.496,-90.89,2015-02-13
29.497,-90.909,2015-02-12
29.498,-90.982,2015-02-12
29.498,-81.739,2015-03-04
29.499,-83.19,2015-05-18
29.502,-81.744,2015-02-13
29.503,-102.554,2015-08-26
29.503,-99.109,2015-03-30
29.503,-97.812,2015-02-09
29.503,-81.733,2015-02-13
29.504,-97.81,2015-03-14
29.504,-91.141,2015-02-14
29.506,-90.871,2015-01-29
29.507,-83.192,2015-05-18
29.508,-99.444,2015-01-03
29.509,-83.182,2015-05-18
29.514,-91.088,2015-02-10
29.516,-102.552,2015-08-25
29.516,-83.188,2015-06-09
29.518,-81.785,2015-02-11
29.52,-81.739,2015-03-30
29.521,-99.199,2015-04-13
29.521,-83.206,2015-06-08
29.522,-99.389,2015-04-13
29.524,-91.166,2015-02-12
29.527,-81.574,2015-07-16
29.528,-90.284,2015-06-04
29.528,-81.725,2015-03-30
29.529,-99.504,2015-03-30
29.53,-102.545,2015-08-25
29.531,-99.492,2015-03-30
29.532,-102.543,2015-08-25
29.533,-81.589,2015-05-08
29.534,-91.923,2015-02-11
29.534,-91.375,2015-02-14
29.535,-99.485,2015-04-01
29.536,-99.499,2015-04-01
29.536,-81.61,2015-07-16
29.538,-82.611,2015-03-30
29.539,-90.919,2015-05-20
29.54,-82.624,2015-03-30
29.543,-81.622,2015-08-12
29.546,-91.342,2015-02-12
29.546,-81.734,2015-01-08
29.549,-91.319,2015-02-12
29.549,-82.598,2015-02-14
29.551,-91.391,2015-07-25
29.554,-83.354,2015-04-07
29.554,-81.619,2015-08-12
29.554,-81.619,2015-08-12
29.556,-83.374,2015-04-07
29.559,-92.272,2015-03-24
29.562,-99.422,2015-04-25
29.563,-97.14,2015-03-06
29.563,-90.017,2015-01-08
29.563,-89.83,2015-06-20
29.564,-99.919,2015-06-01
29.566,-99.415,2015-04-25
29.566,-91.982,2015-02-10
29.566,-83.039,2015-02-06
29.567,-83.048,2015-01-06
29.568,-83.035,2015-02-13
29.569,-99.682,2015-02-10
29.571,-94.391,2015-02-14
29.571,-94.383,2015-02-14
29.571,-92.372,2015-02-10
29.572,-90.741,2015-07-21
29.573,-99.755,2015-07-12
29.573,-94.378,2015-02-14
29.574,-98.031,2015-06-26
29.575,-90.809,2015-01-30
29.575,-83.037,2015-01-29
29.577,-98.032,2015-07-12
29.577,-94.345,2015-02-12
29.577,-92.245,2015-02-12
29.578,-98.03,2015-06-25
29.578,-94.335,2015-02-12
29.578,-94.331,2015-02-13
29.58,-94.341,2015-02-13
29.583,-94.373,2015-02-14
29.583,-92.216,2015-02-07
29.583,-92.171,2015-01-27
29.585,-92.253,2015-02-12
29.585,-92.204,2015-02-07
29.585,-92.16,2015-01-27
29.586,-94.347,2015-02-12
29.586,-94.341,2015-02-13
29.586,-92.242,2015-02-12
29.589,-94.326,2015-02-12
29.59,-94.316,2015-02-12
29.593,-94.375,2015-02-14
29.593,-82.829,2015-05-19
29.595,-99.866,2015-01-19
29.596,-94.338,2015-02-12
29.596,-82.991,2015-02-13
29.597,-91.846,2015-01-06
29.598,-94.328,2015-02-12
29.598,-90.767,2015-08-17
29.598,-90.767,2015-08-17
29.598,-82.461,2015-03-18
29.599,-94.465,2015-02-09
29.599,-82.851,2015-06-04
29.601,-91.874,2015-01-06
29.603,-91.863,2015-01-06
29.605,-91.848,2015-01-06
29.607,-92.151,2015-01-28
29.607,-92.144,2015-01-28
29.608,-100.107,2015-03-13
29.609,-94.254,2015-09-04
29.611,-94.367,2015-02-19
29.614,-94.257,2015-09-04
29.614,-92.176,2015-01-28
29.614,-92.138,2015-01-28
29.615,-92.124,2015-01-28
29.616,-100.481,2015-06-14
29.616,-94.363,2015-02-18
29.617,-100.488,2015-06-01
29.617,-100.478,2015-06-01
29.617,-82.568,2015-03-16
29.617,-82.473,2015-05-08
29.618,-100.482,2015-06-01
29.618,-94.443,2015-02-09
29.618,-89.889,2015-06-07
29.619,-92.227,2015-02-07
29.619,-92.188,2015-01-27
29.619,-89.894,2015-07-17
29.62,-94.369,2015-02-19
29.62,-82.045,2015-03-08
29.621,-94.232,2015-09-04
29.621,-92.176,2015-01-28
29.621,-89.895,2015-07-31
29.622,-92.225,2015-02-07
29.625,-83.098,2015-03-20
29.628,-92.217,2015-02-07
29.629,-99.274,2015-02-19
29.631,-92.218,2015-02-09
29.632,-92.185,2015-02-10
29.632,-92.124,2015-01-29
29.632,-92.118,2015-01-29
29.633,-94.243,2015-09-04
29.633,-92.234,2015-02-07
29.635,-92.222,2015-02-07
29.635,-92.2,2015-02-09
29.635,-90.855,2015-02-10
29.636,-92.16,2015-01-29
29.637,-97.567,2015-07-12
29.637,-94.307,2015-02-18
29.638,-92.328,2015-08-09
29.638,-92.328,2015-08-09
29.638,-92.328,2015-08-09
29.639,-99.276,2015-02-19
29.639,-94.312,2015-02-18
29.64,-94.32,2015-02-18
29.64,-92.317,2015-08-09
29.64,-92.317,2015-08-09
29.64,-92.317,2015-08-09
29.641,-92.187,2015-02-10
29.642,-94.338,2015-04-30
29.643,-92.236,2015-02-07
29.643,-92.163,2015-01-29
29.645,-92.224,2015-02-07
29.646,-94.174,2015-09-06
29.647,-90.345,2015-01-21
29.648,-94.191,2015-09-06
29.648,-81.636,2015-08-16
29.65,-94.156,2015-09-07
29.654,-94.144,2015-09-06
29.656,-83.388,2015-03-17
29.657,-94.462,2015-08-08
29.658,-90.974,2015-01-21
29.659,-94.183,2015-09-06
29.662,-90.351,2015-01-21
29.663,-96.276,2015-01-08
29.663,-94.308,2015-08-05
29.663,-85.122,2015-06-22
29.665,-94.428,2015-08-07
29.665,-94.428,2015-08-07
29.665,-94.428,2015-08-07
29.665,-82.035,2015-02-22
29.667,-82.03,2015-02-22
29.668,-92.542,2015-08-06
29.669,-92.551,2015-08-01
29.67,-92.549,2015-08-17
29.67,-92.549,2015-08-17
29.67,-92.549,2015-08-17
29.672,-92.564,2015-08-08
29.672,-82.738,2015-03-30
29.672,-81.566,2015-05-31
29.674,-92.561,2015-08-14
29.674,-92.561,2015-08-14
29.676,-92.562,2015-08-10
29.676,-82.744,2015-04-24
29.677,-90.373,2015-02-10
29.678,-92.54,2015-08-06
29.679,-90.353,2015-02-10
29.68,-94.478,2015-02-19
29.681,-92.575,2015-07-22
29.682,-94.586,2015-03-20
29.682,-82.851,2015-02-14
29.683,-82.799,2015-01-21
29.684,-94.446,2015-02-19
29.684,-92.341,2015-03-30
29.684,-90.361,2015-02-10
29.685,-82.742,2015-04-24
29.685,-81.273,2015-03-30
29.687,-92.263,2015-02-11
29.689,-82.913,2015-03-20
29.69,-97.904,2015-02-13
29.69,-90.422,2015-02-10
29.691,-92.254,2015-02-12
29.691,-83.053,2015-01-28
29.691,-81.981,2015-02-21
29.692,-90.48,2015-02-14
29.692,-83.005,2015-01-10
29.693,-94.222,2015-02-09
29.693,-92.234,2015-02-11
29.695,-81.919,2015-02-22
29.696,-92.222,2015-02-12
29.696,-90.363,2015-02-10
29.697,-91.267,2015-01-29
29.698,-82.755,2015-04-23
29.699,-99.877,2015-02-10
29.699,-99.205,2015-02-18
29.699,-95.084,2015-04-07
29.699,-94.568,2015-03-20
29.699,-85.29,2015-06-17
29.7,-99.216,2015-02-18
29.7,-85.272,2015-06-15
29.701,-91.306,2015-01-29
29.704,-85.292,2015-06-18
29.704,-81.711,2015-07-01
29.705,-92.33,2015-03-30
29.705,-89.984,2015-08-15
29.705,-89.984,2015-08-15
29.705,-89.984,2015-08-15
29.706,-89.997,2015-02-22
29.706,-83.054,2015-03-03
29.706,-82.599,2015-03-07
29.707,-92.57,2015-07-22
29.708,-96.247,2015-07-15
29.708,-94.542,2015-08-15
29.708,-94.542,2015-08-15
29.708,-85.291,2015-06-17
29.709,-85.281,2015-06-17
29.71,-94.903,2015-04-30
29.71,-94.903,2015-05-03
29.711,-94.906,2015-08-29
29.711,-94.903,2015-07-29
29.711,-94.902,2015-05-09
29.712,-94.903,2015-03-23
29.712,-92.216,2015-02-28
29.712,-83.058,2015-06-16
29.713,-92.824,2015-08-03
29.714,-94.901,2015-03-31
29.714,-91.464,2015-02-12
29.715,-94.905,2015-09-06
29.715,-94.903,2015-05-20
29.715,-91.583,2015-02-14
29.715,-83.053,2015-07-11
29.716,-94.908,2015-08-06
29.716,-94.197,2015-08-24
29.716,-92.824,2015-07-13
29.716,-91.572,2015-02-14
29.716,-85.282,2015-05-01
29.717,-95.138,2015-07-08
29.717,-94.905,2015-07-08
29.717,-92.94,2015-02-13
29.717,-83.069,2015-03-30
29.718,-94.898,2015-05-02
29.718,-94.898,2015-06-01
29.718,-92.95,2015-02-13
29.718,-81.847,2015-02-13
29.719,-94.905,2015-03-14
29.719,-94.905,2015-05-03
29.72,-94.903,2015-07-07
29.72,-94.9,2015-05-09
29.72,-92.259,2015-01-25
29.72,-81.886,2015-01-31
29.721,-94.901,2015-08-24
29.721,-82.583,2015-02-14
29.722,-95.132,2015-07-08
29.722,-94.9,2015-08-24
29.723,-92.193,2015-08-02
29.723,-82.704,2015-08-12
29.724,-92.267,2015-01-25
29.73,-90.083,2015-02-28
29.731,-92.343,2015-03-16
29.731,-92.261,2015-01-25
29.733,-85.138,2015-01-20
29.733,-85.121,2015-01-20
29.733,-82.729,2015-03-16
29.735,-98.546,2015-03-28
29.737,-98.33,2015-04-25
29.737,-94.516,2015-02-18
29.737,-94.012,2015-08-18
29.737,-94.012,2015-08-18
29.737,-94.012,2015-08-18
29.737,-94.004,2015-08-17
29.737,-90.58,2015-01-06
29.738,-94.032,2015-08-18
29.738,-91.45,2015-01-28
29.738,-81.811,2015-03-18
29.739,-90.584,2015-01-19
29.74,-99.532,2015-04-14
29.74,-98.551,2015-05-01
29.74,-92.345,2015-03-16
29.74,-91.56,2015-03-22
29.74,-91.41,2015-02-12
29.741,-91.454,2015-01-28
29.741,-82.22,2015-05-01
29.742,-98.553,2015-03-28
29.742,-92.257,2015-01-25
29.743,-94.027,2015-08-18
29.744,-94.554,2015-02-18
29.745,-82.843,2015-05-27
29.747,-96.145,2015-04-07
29.747,-81.81,2015-03-18
29.748,-82.715,2015-01-28
29.749,-99.517,2015-04-15
29.749,-81.802,2015-05-28
29.75,-81.828,2015-02-06
29.751,-90.708,2015-01-20
29.751,-81.812,2015-05-28
29.752,-93.675,2015-08-01
29.752,-91.586,2015-02-14
29.752,-91.563,2015-03-22
29.752,-91.558,2015-03-22
29.752,-82.65,2015-05-19
29.752,-82.635,2015-03-03
29.754,-81.895,2015-05-11
29.754,-81.873,2015-02-14
29.755,-99.566,2015-04-13
29.755,-82.538,2015-05-01
29.756,-93.671,2015-08-01
29.756,-82.541,2015-05-24
29.757,-82.697,2015-01-29
29.758,-103.647,2015-02-20
29.758,-90.722,2015-01-29
29.759,-103.635,2015-02-20
29.759,-82.535,2015-05-08
29.761,-91.588,2015-02-14
29.761,-91.472,2015-02-07
29.761,-82.71,2015-02-20
29.762,-92.798,2015-02-22
29.762,-91.577,2015-02-14
29.762,-89.586,2015-01-27
29.763,-91.677,2015-02-28
29.763,-91.461,2015-02-07
29.764,-93.577,2015-02-10
29.764,-81.867,2015-02-14
29.765,-82.631,2015-03-03
29.766,-90.634,2015-01-18
29.767,-92.822,2015-02-21
29.767,-92.106,2015-02-07
29.768,-92.992,2015-07-13
29.768,-83.555,2015-05-07
29.768,-81.874,2015-02-14
29.77,-99.821,2015-03-28
29.77,-92.993,2015-07-13
29.77,-82.654,2015-03-03
29.772,-93.348,2015-07-12
29.773,-93.579,2015-02-10
29.773,-92.822,2015-02-22
29.774,-92.487,2015-07-27
29.774,-82.64,2015-02-06
29.775,-92.8,2015-02-22
29.776,-92.242,2015-02-07
29.776,-91.698,2015-02-02
29.776,-91.612,2015-02-14
29.776,-82.626,2015-02-06
29.777,-94.365,2015-02-12
29.777,-92.966,2015-03-30
29.777,-84.866,2015-04-08
29.777,-81.313,2015-05-04
29.778,-103.638,2015-02-20
29.778,-93.504,2015-08-27
29.779,-81.805,2015-06-13
29.78,-91.754,2015-05-08
29.78,-90.569,2015-01-29
29.781,-94.382,2015-01-27
29.781,-91.677,2015-02-02
29.781,-81.815,2015-06-13
29.782,-93.581,2015-02-10
29.782,-89.649,2015-03-29
29.782,-89.646,2015-03-29
29.783,-99.532,2015-06-23
29.783,-82.355,2015-02-14
29.784,-99.46,2015-02-26
29.784,-84.917,2015-02-12
29.785,-91.614,2015-02-14
29.785,-90.452,2015-02-19
29.789,-93.503,2015-08-27
29.789,-92.928,2015-07-29
29.79,-93.592,2015-02-10
29.79,-92.917,2015-07-29
29.791,-93.582,2015-02-10
29.791,-82.99,2015-09-03
29.792,-92.823,2015-07-29
29.792,-82.992,2015-07-22
29.793,-99.464,2015-02-26
29.793,-91.675,2015-02-02
29.795,-94.052,2015-05-02
29.795,-92.238,2015-02-07
29.795,-90.448,2015-06-05
29.796,-84.91,2015-02-12
29.797,-90.483,2015-08-01
29.797,-90.45,2015-02-19
29.798,-93.257,2015-04-05
29.798,-90.493,2015-08-01
29.799,-99.713,2015-01-28
29.799,-93.242,2015-04-05
29.799,-91.677,2015-02-13
29.799,-84.918,2015-02-12
29.801,-84.821,2015-02-16
29.802,-92.929,2015-07-29
29.802,-92.924,2015-07-29
29.802,-90.493,2015-07-23
29.805,-98.295,2015-03-23
29.805,-81.812,2015-01-07
29.806,-93.723,2015-02-12
29.808,-97.026,2015-06-01
29.808,-93.34,2015-02-10
29.809,-84.834,2015-02-16
29.81,-84.823,2015-02-16
29.811,-93.306,2015-01-26
29.813,-103.61,2015-04-02
29.814,-94.946,2015-02-18
29.814,-89.668,2015-02-12
29.814,-84.965,2015-03-18
29.815,-94.165,2015-06-07
29.815,-82.078,2015-03-18
29.817,-84.819,2015-03-04
29.82,-98.991,2015-02-18
29.821,-90.803,2015-01-20
29.821,-89.674,2015-02-08
29.821,-82.002,2015-04-09
29.822,-94.911,2015-02-18
29.823,-90.018,2015-07-21
29.825,-94.919,2015-02-18
29.828,-93.579,2015-02-10
29.828,-92.884,2015-02-02
29.831,-94.928,2015-02-19
29.831,-81.941,2015-05-07
29.832,-103.685,2015-03-24
29.832,-91.718,2015-01-06
29.832,-89.643,2015-02-07
29.833,-94.916,2015-02-19
29.833,-92.009,2015-02-07
29.833,-89.581,2015-02-22
29.834,-93.67,2015-05-22
29.834,-84.897,2015-03-10
29.835,-98.496,2015-02-12
29.835,-92.173,2015-07-25
29.835,-91.748,2015-01-19
29.835,-91.534,2015-01-28
29.835,-89.547,2015-03-08
29.835,-82.279,2015-03-09
29.836,-97.436,2015-03-14
29.838,-98.481,2015-02-12
29.838,-89.554,2015-03-07
29.838,-82.725,2015-08-21
29.838,-81.951,2015-04-23
29.839,-91.719,2015-01-06
29.84,-99.793,2015-03-13
29.84,-91.962,2015-02-07
29.841,-84.912,2015-03-10
29.842,-89.541,2015-03-07
29.843,-82.322,2015-02-13
29.844,-91.942,2015-02-07
29.845,-93.704,2015-07-22
29.845,-82.856,2015-03-20
29.847,-98.533,2015-02-11
29.847,-94.073,2015-02-12
29.847,-81.952,2015-04-23
29.848,-98.528,2015-02-11
29.848,-91.976,2015-02-07
29.848,-91.838,2015-01-08
29.85,-98.502,2015-02-11
29.851,-91.945,2015-02-07
29.851,-89.534,2015-03-07
29.852,-84.675,2015-06-20
29.853,-93.711,2015-07-22
29.853,-84.908,2015-03-10
29.857,-94.064,2015-02-12
29.858,-95.166,2015-02-19
29.859,-91.607,2015-01-20
29.86,-93.688,2015-07-24
29.86,-91.981,2015-02-07
29.861,-95.145,2015-02-19
29.863,-91.65,2015-01-20
29.87,-93.628,2015-02-18
29.87,-91.644,2015-01-21
29.873,-99.948,2015-02-17
29.874,-84.901,2015-05-14
29.874,-82.761,2015-03-30
29.875,-99.974,2015-02-19
29.875,-84.688,2015-01-22
29.875,-82.802,2015-04-08
29.876,-92.073,2015-02-12
29.877,-92.067,2015-01-26
29.877,-92.031,2015-03-07
29.878,-92.062,2015-02-12
29.878,-91.695,2015-01-21
29.879,-103.68,2015-03-25
29.879,-90.62,2015-02-07
29.88,-84.608,2015-07-19
29.881,-99.956,2015-02-17
29.881,-92.034,2015-01-26
29.884,-93.749,2015-02-09
29.884,-91.785,2015-06-06
29.885,-90.623,2015-01-31
29.886,-90.955,2015-07-25
29.886,-81.987,2015-01-28
29.887,-93.137,2015-02-28
29.888,-93.457,2015-02-19
29.889,-97.345,2015-01-16
29.891,-91.801,2015-08-29
29.893,-99.98,2015-06-14
29.893,-82.11,2015-03-17
29.894,-99.465,2015-02-26
29.894,-89.537,2015-02-28
29.894,-83.246,2015-05-07
29.894,-82.0,2015-01-28
29.895,-99.467,2015-02-19
29.895,-93.123,2015-02-12
29.896,-97.449,2015-03-25
29.897,-91.794,2015-08-29
29.898,-91.699,2015-01-19
29.899,-93.131,2015-02-11
29.9,-82.373,2015-03-30
29.901,-99.547,2015-01-03
29.901,-91.79,2015-01-27
29.902,-81.974,2015-05-28
29.903,-91.821,2015-01-20
29.903,-82.112,2015-03-17
29.906,-93.113,2015-02-12
29.906,-84.745,2015-01-30
29.906,-84.688,2015-01-21
29.907,-82.749,2015-02-14
29.908,-93.727,2015-02-10
29.909,-99.765,2015-03-12
29.909,-92.245,2015-03-16
29.909,-91.774,2015-01-27
29.909,-91.746,2015-01-05
29.91,-100.357,2015-05-17
29.911,-96.24,2015-03-06
29.912,-92.046,2015-01-27
29.913,-91.731,2015-01-06
29.913,-81.983,2015-05-28
29.914,-84.581,2015-05-06
29.914,-81.994,2015-05-28
29.915,-91.699,2015-01-21
29.915,-91.694,2015-01-21
29.92,-84.717,2015-01-22
29.922,-82.619,2015-03-18
29.924,-82.631,2015-03-18
29.928,-91.819,2015-01-06
29.928,-83.663,2015-01-29
29.93,-94.87,2015-02-14
29.931,-99.1,2015-02-09
29.931,-97.111,2015-03-13
29.938,-94.923,2015-08-17
29.938,-94.923,2015-08-17
29.938,-90.396,2015-01-20
29.942,-92.338,2015-03-07
29.942,-83.671,2015-01-20
29.943,-100.416,2015-08-11
29.943,-100.416,2015-08-11
29.943,-99.961,2015-03-06
29.943,-98.492,2015-03-28
29.944,-99.957,2015-03-06
29.945,-100.412,2015-08-11
29.945,-100.412,2015-08-11
29.945,-98.482,2015-03-28
29.945,-81.947,2015-03-10
29.946,-100.37,2015-08-11
29.946,-100.37,2015-08-11
29.946,-99.118,2015-02-09
29.946,-82.413,2015-03-03
29.947,-100.365,2015-08-11
29.947,-99.128,2015-02-09
29.948,-91.93,2015-01-29
29.949,-82.41,2015-02-13
29.95,-91.798,2015-02-07
29.951,-90.717,2015-01-20
29.952,-98.544,2015-04-27
29.952,-98.494,2015-03-28
29.953,-84.786,2015-03-03
29.953,-82.471,2015-03-09
29.953,-82.407,2015-01-22
29.953,-82.379,2015-01-22
29.954,-98.483,2015-03-28
29.954,-82.482,2015-03-09
29.955,-100.409,2015-08-11
29.955,-100.409,2015-08-11
29.955,-100.409,2015-08-11
29.955,-100.393,2015-08-11
29.955,-100.393,2015-08-11
29.955,-100.393,2015-08-11
29.955,-84.918,2015-03-17
29.956,-90.181,2015-07-28
29.956,-84.925,2015-03-17
29.959,-100.451,2015-08-12
29.959,-100.451,2015-08-12
29.959,-100.451,2015-08-12
29.959,-100.451,2015-08-12
29.959,-84.91,2015-03-17
29.959,-84.741,2015-06-03
29.96,-90.531,2015-01-29
29.96,-90.198,2015-07-23
29.96,-81.882,2015-01-10
29.961,-100.418,2015-08-11
29.961,-100.418,2015-08-11
29.962,-100.436,2015-08-12
29.962,-100.436,2015-08-12
29.962,-100.436,2015-08-12
29.962,-100.436,2015-08-12
29.962,-100.397,2015-08-11
29.962,-100.397,2015-08-11
29.962,-100.371,2015-08-12
29.962,-100.371,2015-08-12
29.962,-100.371,2015-08-12
29.962,-100.371,2015-08-12
29.962,-82.989,2015-05-17
29.963,-90.608,2015-02-28
29.963,-82.401,2015-01-22
29.965,-100.421,2015-08-12
29.965,-100.421,2015-08-12
29.965,-100.421,2015-08-12
29.965,-100.42,2015-08-12
29.965,-100.366,2015-08-11
29.966,-93.224,2015-07-19
29.967,-100.47,2015-08-12
29.967,-100.47,2015-08-12
29.967,-100.47,2015-08-12
29.967,-100.47,2015-08-12
29.967,-84.928,2015-03-17
29.968,-82.296,2015-03-03
29.969,-100.37,2015-08-12
29.969,-82.751,2015-01-10
29.969,-81.958,2015-04-01
29.97,-100.454,2015-08-12
29.97,-100.454,2015-08-12
29.97,-100.454,2015-08-12
29.97,-100.454,2015-08-12
29.97,-100.39,2015-08-12
29.97,-100.39,2015-08-12
29.97,-100.39,2015-08-12
29.97,-100.389,2015-08-12
29.97,-93.222,2015-08-02
29.97,-84.732,2015-06-03
29.971,-100.468,2015-08-12
29.971,-92.988,2015-03-04
29.971,-82.728,2015-01-28
29.972,-100.402,2015-08-11
29.972,-100.401,2015-08-11
29.972,-100.401,2015-08-11
29.972,-89.896,2015-02-18
29.972,-82.291,2015-03-02
29.973,-100.374,2015-08-12
29.973,-100.374,2015-08-12
29.973,-100.374,2015-08-12
29.973,-100.374,2015-08-12
29.973,-93.661,2015-02-10
29.973,-91.827,2015-01-29
29.973,-82.338,2015-02-14
29.974,-92.006,2015-02-10
29.974,-85.474,2015-01-01
29.975,-100.445,2015-08-12
29.975,-82.264,2015-03-02
29.978,-100.472,2015-08-12
29.978,-100.472,2015-08-12
29.978,-100.472,2015-08-12
29.978,-100.472,2015-08-12
29.978,-97.419,2015-02-14
29.979,-100.478,2015-08-12
29.98,-100.414,2015-08-12
29.98,-100.414,2015-08-12
29.98,-100.414,2015-08-12
29.98,-100.414,2015-08-12
29.981,-100.457,2015-08-12
29.981,-100.457,2015-08-12
29.981,-100.457,2015-08-12
29.981,-100.457,2015-08-12
29.981,-90.445,2015-08-05
29.982,-90.449,2015-08-25
29.982,-84.553,2015-06-15
29.983,-100.391,2015-08-12
29.983,-90.443,2015-06-21
29.983,-90.443,2015-07-09
29.984,-100.389,2015-03-18
29.985,-91.844,2015-01-27
29.985,-82.671,2015-02-22
29.986,-100.426,2015-08-12
29.986,-100.426,2015-08-12
29.986,-100.426,2015-08-12
29.986,-100.426,2015-08-12
29.986,-99.15,2015-06-17
29.988,-90.722,2015-02-10
29.988,-90.458,2015-05-11
29.988,-90.436,2015-05-18
29.989,-82.821,2015-03-25
29.99,-90.446,2015-05-16
29.991,-100.416,2015-08-12
29.991,-100.416,2015-08-12
29.991,-100.416,2015-08-12
29.991,-100.416,2015-08-12
29.991,-91.852,2015-01-27
29.991,-90.438,2015-05-17
29.991,-82.832,2015-03-25
29.991,-82.357,2015-06-18
29.992,-90.734,2015-02-10
29.993,-100.465,2015-08-12
29.993,-100.465,2015-08-12
29.993,-100.465,2015-08-12
29.993,-100.465,2015-08-12
29.993,-91.841,2015-01-27
29.994,-90.715,2015-02-10
29.994,-82.805,2015-03-30
29.994,-81.595,2015-03-10
29.995,-99.69,2015-01-28
29.995,-85.476,2015-01-19
29.996,-100.45,2015-08-12
29.996,-100.45,2015-08-12
29.996,-100.45,2015-08-12
29.996,-100.45,2015-08-12
29.997,-93.662,2015-08-15
29.997,-93.662,2015-08-15
29.997,-93.662,2015-08-15
29.997,-90.4,2015-03-05
29.997,-90.4,2015-05-08
29.997,-90.396,2015-04-20
29.997,-85.463,2015-01-10
29.997,-81.589,2015-03-10
29.998,-100.499,2015-08-12
29.998,-100.499,2015-08-12
29.998,-100.499,2015-08-12
29.998,-100.499,2015-08-12
29.998,-90.403,2015-04-29
29.998,-90.399,2015-08-25
29.998,-90.396,2015-06-07
29.998,-85.463,2015-01-19
29.998,-83.053,2015-04-23
29.999,-100.434,2015-08-12
29.999,-100.434,2015-08-12
29.999,-100.434,2015-08-12
29.999,-100.434,2015-08-12
29.999,-85.452,2015-01-10
29.999,-83.039,2015-03-16
30.0,-90.405,2015-07-25
30.0,-90.4,2015-08-06
30.0,-84.418,2015-08-14
30.0,-84.418,2015-08-14
30.0,-84.418,2015-08-14
30.0,-83.048,2015-04-24
30.0,-82.373,2015-02-12
30.001,-90.408,2015-01-21
30.001,-83.05,2015-03-16
30.002,-82.812,2015-03-30
30.004,-100.468,2015-08-12
30.004,-100.468,2015-08-12
30.004,-100.468,2015-08-12
30.004,-100.468,2015-08-12
30.004,-82.809,2015-03-18
30.005,-81.597,2015-03-18
30.006,-100.36,2015-06-17
30.006,-92.134,2015-03-07
30.006,-84.951,2015-02-12
30.008,-84.469,2015-06-04
30.008,-81.574,2015-03-17
30.009,-82.83,2015-03-20
30.01,-100.437,2015-08-12
30.01,-100.437,2015-08-12
30.01,-100.437,2015-08-12
30.01,-100.437,2015-08-12
30.01,-83.609,2015-03-17
30.011,-100.454,2015-08-12
30.011,-93.664,2015-08-16
30.011,-93.664,2015-08-16
30.011,-93.664,2015-08-16
30.011,-82.815,2015-03-20
30.012,-100.486,2015-08-12
30.012,-100.486,2015-08-12
30.012,-100.486,2015-08-12
30.012,-100.486,2015-08-12
30.013,-84.905,2015-06-19
30.013,-84.491,2015-07-20
30.015,-100.471,2015-08-12
30.015,-100.47,2015-08-12
30.015,-100.47,2015-08-12
30.015,-100.47,2015-08-12
30.015,-94.861,2015-08-06
30.016,-94.749,2015-07-28
30.016,-91.757,2015-01-21
30.016,-82.805,2015-03-18
30.017,-97.463,2015-03-14
30.017,-82.846,2015-03-16
30.018,-100.455,2015-08-12
30.018,-100.455,2015-08-12
30.018,-100.455,2015-08-12
30.018,-100.455,2015-08-12
30.018,-84.587,2015-02-12
30.018,-81.878,2015-02-12
30.02,-100.44,2015-08-12
30.02,-100.44,2015-08-12
30.02,-100.44,2015-08-12
30.02,-100.439,2015-08-12
30.02,-84.479,2015-07-20
30.02,-83.87,2015-03-04
30.021,-82.856,2015-03-09
30.021,-82.816,2015-03-20
30.022,-84.489,2015-07-20
30.023,-89.912,2015-08-10
30.024,-92.94,2015-03-28
30.024,-84.393,2015-08-10
30.025,-100.473,2015-08-12
30.025,-82.79,2015-03-18
30.026,-82.896,2015-02-11
30.026,-82.803,2015-03-18
30.027,-82.886,2015-02-11
30.028,-91.713,2015-01-21
30.028,-90.486,2015-01-20
30.028,-84.482,2015-01-26
30.028,-82.652,2015-05-19
30.029,-84.471,2015-01-26
30.029,-82.882,2015-02-20
30.03,-83.872,2015-03-04
30.03,-83.118,2015-02-14
30.031,-91.71,2015-01-19
30.031,-84.397,2015-02-12
30.032,-100.442,2015-08-12
30.032,-100.442,2015-08-12
30.032,-92.229,2015-02-13
30.032,-91.748,2015-01-29
30.032,-90.538,2015-02-02
30.033,-84.663,2015-07-22
30.034,-100.455,2015-08-12
30.034,-100.455,2015-08-12
30.034,-100.455,2015-08-12
30.034,-92.914,2015-01-29
30.035,-84.674,2015-07-22
30.035,-82.966,2015-03-21
30.036,-100.476,2015-08-12
30.036,-100.476,2015-08-12
30.036,-100.476,2015-08-12
30.036,-100.476,2015-08-12
30.036,-100.468,2015-08-12
30.037,-100.468,2015-08-12
30.037,-100.468,2015-08-12
30.037,-97.523,2015-03-06
30.037,-92.852,2015-02-12
30.037,-92.226,2015-04-01
30.037,-92.133,2015-02-14
30.038,-85.278,2015-02-13
30.039,-97.498,2015-05-09
30.039,-94.55,2015-04-04
30.044,-100.452,2015-08-12
30.044,-100.452,2015-08-12
30.044,-100.452,2015-08-12
30.044,-92.916,2015-01-29
30.045,-92.905,2015-01-29
30.046,-93.189,2015-01-25
30.047,-98.277,2015-01-28
30.048,-91.762,2015-01-29
30.049,-91.752,2015-01-29
30.049,-85.017,2015-04-23
30.049,-84.419,2015-07-17
30.05,-83.003,2015-06-16
30.051,-93.755,2015-08-25
30.052,-82.887,2015-01-31
30.055,-99.05,2015-05-27
30.055,-91.725,2015-01-27
30.057,-92.923,2015-03-27
30.057,-91.764,2015-01-29
30.058,-99.076,2015-05-29
30.058,-82.013,2015-01-28
30.059,-99.059,2015-05-29
30.059,-83.121,2015-07-07
30.06,-99.062,2015-05-29
30.06,-89.762,2015-02-10
30.06,-84.387,2015-07-16
30.061,-99.051,2015-05-28
30.061,-89.752,2015-02-14
30.064,-91.727,2015-01-27
30.064,-91.013,2015-02-12
30.065,-94.063,2015-07-01
30.065,-91.857,2015-07-14
30.065,-85.582,2015-05-18
30.066,-92.5,2015-02-12
30.068,-82.794,2015-02-21
30.069,-82.004,2015-01-28
30.069,-81.98,2015-03-09
30.07,-82.604,2015-04-22
30.07,-82.508,2015-05-07
30.07,-81.993,2015-01-28
30.072,-83.266,2015-01-31
30.072,-83.253,2015-02-12
30.072,-82.964,2015-02-20
30.075,-90.869,2015-02-11
30.075,-81.596,2015-06-20
30.077,-84.354,2015-01-28
30.078,-91.692,2015-01-20
30.08,-99.522,2015-01-28
30.08,-92.581,2015-02-10
30.081,-99.511,2015-01-28
30.081,-92.844,2015-02-13
30.081,-83.289,2015-02-14
30.082,-99.232,2015-03-24
30.082,-81.353,2015-06-22
30.084,-84.362,2015-01-28
30.085,-89.769,2015-02-14
30.085,-83.29,2015-01-10
30.085,-81.354,2015-05-14
30.086,-95.515,2015-07-31
30.087,-84.376,2015-01-28
30.088,-98.223,2015-04-14
30.088,-93.594,2015-01-30
30.09,-84.621,2015-03-17
30.094,-94.683,2015-07-30
30.094,-82.615,2015-03-16
30.095,-92.652,2015-02-14
30.095,-89.774,2015-08-05
30.096,-82.902,2015-02-12
30.096,-82.808,2015-05-11
30.099,-83.632,2015-06-16
30.099,-81.351,2015-03-18
30.1,-82.99,2015-02-20
30.1,-81.362,2015-03-18
30.101,-84.624,2015-03-17
30.102,-84.606,2015-03-17
30.102,-83.014,2015-02-20
30.102,-82.831,2015-04-09
30.103,-93.458,2015-07-20
30.103,-83.645,2015-05-21
30.104,-83.004,2015-02-20
30.104,-82.746,2015-08-19
30.104,-82.746,2015-08-19
30.104,-82.746,2015-08-19
30.104,-82.746,2015-08-19
30.105,-97.944,2015-08-28
30.105,-92.763,2015-02-12
30.106,-84.598,2015-03-17
30.106,-82.405,2015-07-29
30.109,-91.845,2015-01-29
30.109,-81.36,2015-03-18
30.11,-94.421,2015-08-06
30.11,-82.842,2015-05-11
30.111,-93.612,2015-03-27
30.111,-84.142,2015-03-17
30.112,-94.432,2015-08-06
30.113,-93.46,2015-07-20
30.114,-84.632,2015-03-17
30.115,-84.602,2015-03-17
30.116,-83.106,2015-08-22
30.117,-85.357,2015-09-04
30.117,-84.617,2015-03-17
30.118,-84.455,2015-01-28
30.119,-85.368,2015-09-02
30.119,-82.8,2015-02-07
30.12,-84.436,2015-01-28
30.12,-84.308,2015-07-29
30.122,-82.852,2015-05-11
30.123,-98.233,2015-03-06
30.124,-82.847,2015-05-11
30.126,-83.924,2015-05-04
30.128,-92.607,2015-07-21
30.129,-81.4,2015-04-03
30.129,-81.382,2015-01-30
30.13,-82.825,2015-01-28
30.131,-89.862,2015-07-25
30.132,-82.758,2015-05-07
30.133,-91.038,2015-01-19
30.133,-82.607,2015-01-21
30.134,-82.778,2015-05-07
30.135,-82.597,2015-01-21
30.138,-93.128,2015-02-12
30.138,-91.849,2015-07-13
30.138,-81.374,2015-01-07
30.139,-104.697,2015-02-20
30.14,-84.197,2015-02-13
30.141,-94.396,2015-03-27
30.144,-94.38,2015-03-27
30.145,-83.163,2015-02-11
30.149,-92.64,2015-07-07
30.15,-83.777,2015-07-07
30.151,-83.77,2015-07-22
30.152,-91.148,2015-01-20
30.154,-83.118,2015-07-29
30.157,-85.204,2015-02-15
30.158,-83.943,2015-01-30
30.159,-91.136,2015-02-09
30.159,-81.926,2015-05-07
30.16,-93.484,2015-02-09
30.16,-85.284,2015-01-31
30.161,-91.183,2015-01-21
30.162,-85.198,2015-02-15
30.162,-84.828,2015-03-11
30.163,-85.231,2015-02-13
30.164,-85.213,2015-02-15
30.164,-83.934,2015-01-30
30.165,-95.069,2015-08-02
30.165,-93.463,2015-02-11
30.165,-85.214,2015-02-15
30.165,-83.015,2015-04-22
30.165,-83.005,2015-04-08
30.166,-91.128,2015-02-09
30.166,-85.215,2015-02-13
30.166,-83.26,2015-07-10
30.167,-85.519,2015-03-11
30.167,-85.511,2015-03-11
30.167,-83.015,2015-04-08
30.168,-95.051,2015-08-02
30.169,-83.004,2015-04-03
30.169,-83.002,2015-04-24
30.169,-82.022,2015-02-12
30.17,-91.042,2015-01-27
30.17,-83.016,2015-04-01
30.17,-83.011,2015-03-30
30.172,-93.355,2015-01-06
30.172,-83.016,2015-05-07
30.173,-91.974,2015-07-11
30.174,-95.283,2015-08-06
30.174,-83.163,2015-02-13
30.174,-83.011,2015-05-13
30.175,-84.277,2015-02-15
30.175,-83.013,2015-04-22
30.175,-81.954,2015-01-07
30.177,-84.285,2015-02-15
30.178,-89.65,2015-02-13
30.179,-91.712,2015-02-12
30.179,-91.044,2015-01-27
30.179,-89.646,2015-02-13
30.179,-83.006,2015-05-21
30.179,-81.935,2015-01-07
30.179,-81.448,2015-02-11
30.181,-92.195,2015-02-12
30.181,-84.892,2015-03-03
30.181,-81.939,2015-04-30
30.182,-92.185,2015-02-12
30.184,-97.6,2015-01-18
30.186,-90.987,2015-08-17
30.186,-90.987,2015-08-17
30.186,-90.987,2015-08-17
30.186,-84.794,2015-03-04
30.187,-82.279,2015-02-15
30.188,-84.821,2015-03-10
30.189,-84.871,2015-03-03
30.189,-84.77,2015-03-04
30.189,-82.274,2015-02-15
30.191,-99.75,2015-08-23
30.191,-99.75,2015-08-23
30.191,-99.75,2015-08-23
30.192,-99.764,2015-08-23
30.192,-99.764,2015-08-23
30.192,-99.763,2015-08-23
30.193,-84.451,2015-01-30
30.193,-83.195,2015-03-11
30.193,-83.185,2015-03-11
30.194,-84.445,2015-01-30
30.194,-83.284,2015-02-13
30.195,-99.746,2015-08-23
30.195,-99.746,2015-08-23
30.195,-99.746,2015-08-23
30.195,-83.202,2015-03-11
30.197,-84.429,2015-01-30
30.198,-95.809,2015-02-19
30.199,-95.815,2015-02-10
30.199,-84.422,2015-01-30
30.199,-83.272,2015-02-14
30.199,-82.665,2015-04-24
30.201,-101.581,2015-08-13
30.201,-101.581,2015-08-13
30.202,-95.805,2015-02-18
30.203,-99.752,2015-08-23
30.205,-91.016,2015-01-27
30.205,-85.179,2015-01-28
30.207,-84.448,2015-01-30
30.207,-83.965,2015-01-10
30.207,-82.48,2015-01-27
30.209,-100.172,2015-03-10
30.209,-89.707,2015-08-01
30.214,-99.755,2015-08-23
30.214,-99.755,2015-08-23
30.215,-84.712,2015-08-27
30.217,-93.153,2015-07-30
30.217,-82.39,2015-04-22
30.217,-81.882,2015-06-18
30.218,-93.154,2015-08-09
30.218,-93.154,2015-08-09
30.221,-82.561,2015-02-12
30.222,-82.521,2015-01-07
30.223,-91.053,2015-05-04
30.223,-82.044,2015-07-22
30.224,-99.766,2015-07-21
30.224,-83.007,2015-02-15
30.225,-84.835,2015-01-21
30.225,-81.688,2015-08-26
30.226,-83.951,2015-07-13
30.226,-81.677,2015-07-11
30.227,-91.046,2015-04-03
30.227,-82.438,2015-07-23
30.228,-91.05,2015-03-22
30.228,-81.916,2015-01-30
30.229,-85.886,2015-06-23
30.229,-84.001,2015-03-17
30.229,-82.438,2015-07-04
30.23,-95.5,2015-01-27
30.23,-85.151,2015-01-27
30.23,-82.984,2015-02-15
30.23,-81.903,2015-01-30
30.231,-91.048,2015-04-11
30.232,-91.049,2015-03-28
30.232,-91.043,2015-02-07
30.232,-84.831,2015-01-21
30.232,-82.036,2015-07-29
30.233,-100.416,2015-04-29
30.233,-89.802,2015-07-13
30.234,-84.818,2015-01-20
30.234,-83.011,2015-02-15
30.234,-83.006,2015-02-15
30.234,-82.451,2015-07-07
30.235,-100.406,2015-04-29
30.235,-91.054,2015-02-09
30.235,-91.048,2015-01-10
30.235,-91.048,2015-02-10
30.236,-91.06,2015-02-07
30.236,-91.058,2015-07-15
30.236,-91.054,2015-03-21
30.236,-91.048,2015-05-04
30.236,-91.036,2015-03-21
30.236,-84.813,2015-01-21
30.236,-84.017,2015-03-17
30.238,-91.043,2015-02-06
30.24,-91.054,2015-02-06
30.24,-91.048,2015-05-03
30.24,-85.916,2015-06-18
30.241,-91.05,2015-05-07
30.242,-91.04,2015-02-07
30.242,-82.398,2015-01-30
30.243,-98.398,2015-06-08
30.244,-92.125,2015-08-29
30.245,-100.411,2015-04-28
30.246,-99.66,2015-06-09
30.247,-93.487,2015-01-29
30.247,-91.263,2015-01-28
30.248,-96.592,2015-01-27
30.249,-84.796,2015-01-29
30.25,-93.286,2015-07-04
30.25,-89.433,2015-02-07
30.251,-93.275,2015-07-04
30.251,-84.26,2015-04-03
30.253,-93.283,2015-07-06
30.253,-84.276,2015-04-03
30.254,-91.288,2015-01-27
30.255,-84.261,2015-04-24
30.255,-83.204,2015-01-21
30.256,-94.39,2015-06-10
30.256,-91.276,2015-01-27
30.256,-91.2,2015-01-21
30.256,-84.828,2015-01-20
30.258,-101.212,2015-08-14
30.258,-91.211,2015-01-21
30.26,-101.217,2015-08-14
30.261,-94.363,2015-06-10
30.261,-84.798,2015-01-29
30.262,-83.206,2015-01-28
30.262,-83.203,2015-01-28
30.264,-99.678,2015-04-29
30.266,-85.901,2015-05-06
30.268,-97.32,2015-01-27
30.269,-90.979,2015-07-23
30.272,-82.859,2015-01-19
30.273,-85.927,2015-06-17
30.274,-90.982,2015-08-25
30.274,-85.716,2015-04-07
30.274,-82.39,2015-01-20
30.275,-85.705,2015-04-07
30.277,-92.44,2015-02-12
30.278,-99.852,2015-08-07
30.278,-95.904,2015-02-12
30.278,-82.763,2015-06-20
30.279,-99.852,2015-08-07
30.279,-99.852,2015-08-07
30.279,-85.94,2015-06-18
30.28,-84.325,2015-05-18
30.281,-81.982,2015-07-13
30.282,-89.91,2015-03-25
30.283,-99.82,2015-08-07
30.283,-85.935,2015-03-04
30.283,-85.917,2015-03-20
30.283,-85.718,2015-04-07
30.283,-83.18,2015-02-12
30.284,-101.229,2015-08-14
30.284,-101.229,2015-08-14
30.284,-101.229,2015-08-14
30.284,-101.229,2015-08-14
30.284,-101.205,2015-08-14
30.284,-99.825,2015-08-07
30.284,-82.756,2015-02-21
30.286,-83.18,2015-05-09
30.286,-82.755,2015-05-08
30.287,-101.369,2015-03-28
30.288,-101.358,2015-03-28
30.288,-99.847,2015-08-07
30.288,-85.718,2015-05-06
30.288,-85.468,2015-05-04
30.289,-91.248,2015-01-28
30.289,-84.815,2015-07-27
30.289,-82.392,2015-01-20
30.29,-99.843,2015-08-07
30.29,-99.843,2015-08-07
30.29,-99.843,2015-08-07
30.29,-85.473,2015-05-04
30.29,-83.185,2015-05-09
30.29,-83.174,2015-05-12
30.291,-84.827,2015-07-27
30.292,-83.185,2015-05-12
30.293,-85.942,2015-05-17
30.293,-85.926,2015-05-17
30.294,-99.706,2015-07-30
30.294,-94.652,2015-08-16
30.294,-94.652,2015-08-16
30.294,-94.652,2015-08-16
30.295,-85.712,2015-08-25
30.295,-83.075,2015-05-02
30.296,-99.822,2015-08-07
30.296,-92.905,2015-02-13
30.296,-83.303,2015-01-19
30.297,-84.886,2015-01-06
30.298,-101.367,2015-03-28
30.298,-83.293,2015-03-18
30.299,-99.714,2015-07-30
30.299,-85.728,2015-05-05
30.299,-84.435,2015-07-11
30.299,-82.498,2015-01-29
30.3,-99.839,2015-08-07
30.3,-98.424,2015-02-10
30.3,-92.951,2015-02-10
30.3,-91.257,2015-01-28
30.3,-85.914,2015-05-17
30.3,-81.946,2015-07-29
30.301,-98.64,2015-03-06
30.302,-84.412,2015-07-11
30.302,-82.57,2015-02-11
30.303,-91.144,2015-09-03
30.303,-82.594,2015-01-19
30.303,-81.943,2015-06-20
30.304,-94.654,2015-08-16
30.304,-94.654,2015-08-16
30.304,-94.654,2015-08-16
30.304,-91.831,2015-01-21
30.304,-84.424,2015-07-11
30.305,-94.643,2015-08-16
30.305,-85.711,2015-08-24
30.305,-85.711,2015-08-24
30.305,-82.584,2015-01-19
30.306,-85.754,2015-06-17
30.307,-84.495,2015-04-24
30.307,-83.292,2015-03-25
30.309,-95.331,2015-08-29
30.31,-85.943,2015-05-17
30.31,-84.175,2015-03-08
30.312,-89.481,2015-02-12
30.313,-85.715,2015-05-20
30.313,-82.723,2015-05-15
30.313,-82.574,2015-01-19
30.314,-89.466,2015-02-12
30.315,-82.737,2015-04-23
30.315,-82.066,2015-04-23
30.317,-85.725,2015-07-27
30.317,-84.809,2015-07-27
30.317,-83.3,2015-07-27
30.318,-83.292,2015-05-11
30.319,-85.73,2015-05-20
30.319,-83.293,2015-07-29
30.32,-82.673,2015-03-09
30.32,-82.487,2015-05-12
30.321,-91.258,2015-08-13
30.321,-91.258,2015-08-13
30.321,-83.298,2015-08-13
30.321,-82.732,2015-04-24
30.322,-85.725,2015-05-20
30.322,-83.29,2015-08-23
30.323,-89.483,2015-02-12
30.323,-83.306,2015-07-10
30.324,-101.368,2015-03-27
30.324,-83.302,2015-08-10
30.325,-98.285,2015-02-19
30.325,-92.762,2015-03-25
30.326,-90.665,2015-02-10
30.326,-85.725,2015-02-13
30.327,-92.752,2015-03-25
30.327,-89.581,2015-07-07
30.328,-91.239,2015-04-20
30.328,-91.238,2015-05-27
30.328,-91.238,2015-07-17
30.328,-84.624,2015-05-01
30.328,-83.834,2015-03-08
30.329,-82.794,2015-02-12
30.33,-85.708,2015-02-13
30.33,-82.687,2015-03-10
30.331,-82.184,2015-03-10
30.332,-84.474,2015-04-24
30.333,-98.299,2015-02-19
30.334,-98.612,2015-02-08
30.334,-89.583,2015-07-29
30.335,-84.495,2015-04-24
30.336,-85.998,2015-05-02
30.336,-85.838,2015-05-12
30.337,-91.815,2015-01-08
30.337,-84.622,2015-05-01
30.338,-94.073,2015-07-18
30.338,-88.489,2015-06-15
30.338,-88.484,2015-06-18
30.338,-84.632,2015-05-01
30.338,-82.693,2015-03-17
30.339,-88.486,2015-07-01
30.34,-88.484,2015-07-18
30.34,-84.643,2015-05-01
30.341,-94.058,2015-07-19
30.341,-87.782,2015-02-28
30.341,-84.427,2015-02-07
30.342,-94.446,2015-06-29
30.342,-94.064,2015-07-19
30.342,-94.061,2015-08-04
30.342,-88.497,2015-08-04
30.342,-86.074,2015-01-30
30.342,-85.971,2015-04-08
30.344,-86.087,2015-01-30
30.344,-85.576,2015-03-17
30.345,-85.793,2015-09-04
30.346,-90.717,2015-08-13
30.346,-90.716,2015-08-13
30.346,-90.716,2015-08-13
30.346,-88.484,2015-07-23
30.346,-86.007,2015-03-16
30.346,-83.907,2015-03-09
30.347,-84.631,2015-05-01
30.347,-83.233,2015-07-29
30.348,-85.793,2015-05-17
30.348,-83.947,2015-04-23
30.348,-82.964,2015-04-24
30.349,-92.116,2015-02-10
30.349,-90.718,2015-08-14
30.349,-90.718,2015-08-14
30.349,-90.718,2015-08-14
30.349,-84.641,2015-05-01
30.349,-83.244,2015-07-29
30.35,-83.936,2015-04-23
30.351,-82.989,2015-08-30
30.352,-101.314,2015-08-27
30.352,-90.635,2015-08-08
30.352,-84.662,2015-05-01
30.353,-90.731,2015-09-01
30.353,-85.981,2015-04-08
30.353,-85.587,2015-02-11
30.354,-97.252,2015-04-07
30.355,-94.91,2015-07-08
30.355,-90.721,2015-09-01
30.355,-85.991,2015-04-21
30.355,-85.1,2015-02-12
30.356,-83.903,2015-03-09
30.356,-82.571,2015-01-21
30.356,-82.474,2015-05-12
30.357,-82.418,2015-05-12
30.358,-83.888,2015-05-22
30.359,-99.685,2015-02-10
30.359,-92.684,2015-03-07
30.359,-91.839,2015-01-29
30.361,-83.889,2015-03-03
30.362,-84.281,2015-02-13
30.362,-83.894,2015-03-03
30.362,-83.867,2015-05-22
30.363,-103.66,2015-02-06
30.363,-94.897,2015-07-28
30.363,-84.269,2015-02-13
30.363,-84.098,2015-08-25
30.364,-83.985,2015-01-28
30.365,-84.275,2015-02-13
30.367,-82.957,2015-02-14
30.368,-96.671,2015-01-19
30.368,-94.876,2015-07-28
30.368,-82.458,2015-05-14
30.369,-91.764,2015-07-14
30.369,-83.922,2015-03-10
30.369,-82.468,2015-05-15
30.369,-82.456,2015-05-12
30.371,-99.973,2015-05-29
30.371,-94.888,2015-07-28
30.371,-81.819,2015-04-24
30.372,-86.282,2015-03-28
30.372,-82.738,2015-06-15
30.372,-82.466,2015-05-14
30.373,-94.904,2015-07-28
30.373,-84.946,2015-08-22
30.373,-84.946,2015-08-22
30.373,-84.946,2015-08-22
30.373,-82.125,2015-03-16
30.375,-94.481,2015-06-11
30.375,-93.561,2015-07-24
30.376,-84.94,2015-08-23
30.377,-94.47,2015-06-11
30.377,-93.549,2015-07-24
30.377,-82.268,2015-01-28
30.377,-81.779,2015-08-08
30.377,-81.778,2015-07-22
30.379,-93.539,2015-07-24
30.379,-85.877,2015-02-11
30.379,-81.781,2015-04-08
30.38,-95.206,2015-02-07
30.38,-94.886,2015-07-28
30.38,-91.047,2015-07-21
30.38,-81.776,2015-04-24
30.381,-94.869,2015-07-28
30.382,-94.514,2015-07-23
30.382,-83.918,2015-03-11
30.382,-82.738,2015-05-12
30.382,-82.449,2015-05-14
30.384,-93.563,2015-07-24
30.385,-94.578,2015-06-10
30.385,-82.429,2015-05-12
30.386,-82.27,2015-01-28
30.387,-93.575,2015-07-24
30.387,-83.931,2015-03-17
30.388,-87.331,2015-02-13
30.388,-82.259,2015-01-28
30.39,-97.357,2015-01-07
30.39,-83.918,2015-03-17
30.39,-83.886,2015-04-03
30.39,-83.387,2015-03-18
30.391,-94.504,2015-07-23
30.391,-93.531,2015-07-23
30.392,-93.542,2015-07-23
30.393,-101.328,2015-08-28
30.393,-84.35,2015-06-21
30.394,-85.896,2015-08-21
30.394,-84.442,2015-05-04
30.394,-83.794,2015-03-17
30.395,-83.81,2015-03-16
30.398,-93.539,2015-06-11
30.398,-84.436,2015-05-04
30.398,-83.808,2015-03-17
30.399,-93.528,2015-06-11
30.4,-101.342,2015-08-28
30.401,-100.498,2015-08-14
30.401,-89.501,2015-03-07
30.401,-83.898,2015-01-10
30.402,-83.883,2015-04-03
30.403,-83.888,2015-04-03
30.404,-99.16,2015-04-21
30.404,-84.924,2015-08-14
30.404,-84.923,2015-08-14
30.404,-84.923,2015-08-14
30.404,-82.326,2015-06-15
30.404,-82.308,2015-06-15
30.405,-84.931,2015-07-20
30.405,-83.922,2015-03-17
30.405,-82.313,2015-06-15
30.405,-82.263,2015-01-31
30.406,-83.927,2015-03-17
30.406,-82.323,2015-06-15
30.406,-81.762,2015-05-27
30.407,-93.577,2015-06-25
30.407,-91.529,2015-07-07
30.407,-84.924,2015-07-22
30.408,-82.328,2015-06-15
30.409,-87.63,2015-03-30
30.409,-82.767,2015-03-11
30.41,-92.93,2015-01-19
30.41,-83.349,2015-05-12
30.41,-83.106,2015-06-07
30.411,-83.346,2015-03-30
30.412,-89.503,2015-03-07
30.412,-83.378,2015-01-27
30.413,-87.56,2015-02-10
30.413,-84.006,2015-04-02
30.414,-88.657,2015-01-21
30.415,-91.423,2015-08-06
30.415,-87.571,2015-02-10
30.415,-84.059,2015-05-11
30.415,-83.359,2015-05-08
30.415,-83.358,2015-05-19
30.415,-83.352,2015-07-22
30.415,-82.306,2015-06-15
30.417,-91.43,2015-08-03
30.417,-88.701,2015-01-21
30.419,-83.36,2015-08-19
30.419,-83.36,2015-08-19
30.419,-83.338,2015-01-10
30.419,-81.644,2015-06-13
30.42,-83.374,2015-08-21
30.42,-83.373,2015-08-21
30.42,-83.373,2015-08-21
30.42,-83.346,2015-06-22
30.421,-83.283,2015-03-07
30.422,-101.333,2015-08-29
30.422,-85.035,2015-01-22
30.422,-83.36,2015-03-10
30.422,-83.331,2015-05-07
30.423,-89.189,2015-03-20
30.423,-88.634,2015-03-30
30.423,-83.894,2015-03-31
30.423,-83.367,2015-03-17
30.423,-83.367,2015-08-13
30.423,-83.363,2015-03-02
30.423,-83.317,2015-05-07
30.424,-88.646,2015-03-30
30.424,-83.356,2015-01-27
30.425,-84.825,2015-03-19
30.425,-83.884,2015-03-31
30.425,-83.366,2015-06-26
30.425,-83.359,2015-07-21
30.425,-83.349,2015-03-25
30.426,-93.489,2015-08-28
30.426,-84.851,2015-04-02
30.426,-84.822,2015-03-17
30.426,-83.36,2015-02-12
30.426,-83.357,2015-03-20
30.427,-83.369,2015-06-19
30.427,-83.356,2015-02-12
30.428,-84.058,2015-04-24
30.428,-83.364,2015-03-10
30.429,-84.835,2015-04-02
30.429,-83.981,2015-03-31
30.429,-83.376,2015-03-04
30.429,-83.358,2015-06-19
30.429,-83.354,2015-07-31
30.43,-83.196,2015-08-10
30.431,-87.892,2015-01-21
30.431,-85.571,2015-08-12
30.431,-83.362,2015-03-04
30.432,-83.32,2015-05-07
30.432,-83.209,2015-08-10
30.435,-92.174,2015-07-24
30.435,-86.816,2015-05-02
30.435,-84.88,2015-06-25
30.436,-99.569,2015-04-27
30.436,-92.166,2015-07-24
30.436,-84.852,2015-04-01
30.436,-83.19,2015-08-10
30.437,-92.573,2015-02-13
30.437,-92.308,2015-01-21
30.437,-84.502,2015-03-30
30.438,-89.215,2015-07-29
30.44,-84.838,2015-04-02
30.441,-83.382,2015-03-10
30.442,-91.774,2015-07-16
30.443,-89.509,2015-05-05
30.444,-84.841,2015-05-22
30.444,-83.372,2015-08-10
30.446,-86.047,2015-02-12
30.446,-86.012,2015-02-20
30.446,-86.01,2015-02-19
30.446,-84.83,2015-05-22
30.447,-89.52,2015-03-08
30.447,-88.348,2015-03-28
30.447,-86.843,2015-08-09
30.447,-86.843,2015-08-09
30.447,-86.843,2015-08-09
30.447,-85.96,2015-05-19
30.447,-83.284,2015-02-12
30.448,-100.195,2015-03-06
30.448,-86.022,2015-02-12
30.448,-85.998,2015-02-20
30.449,-84.428,2015-04-01
30.449,-82.814,2015-07-13
30.45,-84.832,2015-07-27
30.45,-84.529,2015-05-08
30.45,-83.658,2015-02-13
30.45,-83.283,2015-02-11
30.45,-83.137,2015-02-06
30.451,-101.335,2015-08-29
30.451,-84.991,2015-02-12
30.451,-83.137,2015-02-12
30.452,-100.665,2015-05-29
30.452,-88.728,2015-05-04
30.452,-88.707,2015-06-20
30.452,-85.967,2015-01-30
30.452,-84.97,2015-02-11
30.453,-92.98,2015-02-12
30.453,-86.015,2015-02-12
30.453,-84.733,2015-04-08
30.455,-94.494,2015-07-27
30.456,-96.317,2015-01-20
30.458,-88.685,2015-06-16
30.458,-87.463,2015-01-28
30.459,-101.362,2015-08-29
30.459,-84.48,2015-07-04
30.459,-82.366,2015-02-11
30.46,-84.868,2015-07-01
30.461,-83.348,2015-01-31
30.461,-82.356,2015-02-11
30.463,-88.749,2015-06-18
30.463,-85.947,2015-01-30
30.463,-82.335,2015-02-20
30.464,-91.263,2015-01-29
30.464,-84.951,2015-05-11
30.464,-84.865,2015-06-30
30.464,-83.092,2015-02-12
30.465,-85.96,2015-01-30
30.466,-87.339,2015-09-04
30.467,-87.345,2015-07-23
30.468,-99.112,2015-03-06
30.468,-89.884,2015-08-29
30.468,-84.861,2015-07-29
30.469,-86.845,2015-07-26
30.469,-84.957,2015-05-11
30.469,-83.118,2015-04-08
30.469,-82.746,2015-07-20
30.47,-99.557,2015-01-21
30.47,-85.55,2015-05-06
30.471,-89.884,2015-09-04
30.471,-84.982,2015-05-11
30.472,-98.82,2015-01-18
30.472,-97.376,2015-01-18
30.473,-97.365,2015-01-18
30.473,-84.866,2015-07-01
30.473,-82.776,2015-08-14
30.473,-82.776,2015-08-14
30.474,-98.827,2015-01-18
30.474,-87.458,2015-02-07
30.474,-86.675,2015-04-05
30.475,-87.483,2015-02-19
30.475,-86.951,2015-01-10
30.475,-86.036,2015-01-28
30.475,-84.888,2015-07-01
30.475,-84.869,2015-06-30
30.476,-94.036,2015-06-08
30.476,-93.082,2015-02-10
30.476,-90.235,2015-08-03
30.476,-83.099,2015-01-21
30.477,-88.694,2015-02-10
30.477,-84.862,2015-06-30
30.477,-83.289,2015-07-13
30.478,-94.035,2015-08-07
30.478,-93.068,2015-02-10
30.478,-82.744,2015-07-20
30.479,-83.19,2015-03-08
30.48,-90.92,2015-08-24
30.48,-90.92,2015-08-24
30.48,-90.92,2015-08-24
30.48,-90.92,2015-08-24
30.481,-84.882,2015-06-30
30.482,-100.371,2015-08-02
30.482,-93.875,2015-07-28
30.482,-91.241,2015-01-27
30.484,-86.666,2015-04-05
30.485,-90.893,2015-02-10
30.485,-83.098,2015-01-19
30.486,-87.466,2015-02-19
30.487,-87.777,2015-02-14
30.487,-82.817,2015-07-13
30.488,-94.033,2015-06-08
30.488,-87.44,2015-02-19
30.488,-83.182,2015-03-09
30.488,-82.928,2015-03-18
30.489,-100.337,2015-08-02
30.489,-87.484,2015-02-19
30.489,-85.94,2015-02-14
30.489,-84.971,2015-05-06
30.49,-84.964,2015-05-22
30.491,-100.367,2015-08-02
30.491,-100.349,2015-08-02
30.491,-85.924,2015-02-14
30.491,-83.752,2015-07-29
30.492,-94.054,2015-06-08
30.492,-84.987,2015-05-06
30.492,-82.993,2015-03-09
30.493,-91.316,2015-01-27
30.493,-86.794,2015-02-09
30.493,-86.774,2015-01-25
30.493,-85.782,2015-07-27
30.493,-84.91,2015-07-29
30.494,-84.92,2015-07-29
30.495,-99.061,2015-02-10
30.495,-88.802,2015-03-20
30.496,-99.05,2015-02-10
30.496,-93.863,2015-07-30
30.496,-84.547,2015-02-19
30.497,-85.916,2015-02-14
30.498,-100.377,2015-08-02
30.498,-98.159,2015-02-19
30.498,-93.858,2015-07-28
30.498,-91.91,2015-07-28
30.498,-82.389,2015-02-13
30.5,-100.347,2015-08-02
30.5,-95.888,2015-02-19
30.5,-85.936,2015-02-14
30.5,-83.984,2015-03-17
30.501,-83.554,2015-03-25
30.502,-84.503,2015-01-08
30.503,-88.188,2015-01-19
30.504,-100.355,2015-08-03
30.504,-83.168,2015-07-29
30.505,-95.048,2015-02-18
30.505,-89.866,2015-08-25
30.505,-88.179,2015-01-19
30.506,-98.526,2015-03-06
30.506,-87.468,2015-02-10
30.506,-84.833,2015-04-03
30.506,-82.344,2015-02-13
30.507,-99.041,2015-02-10
30.507,-98.421,2015-01-24
30.507,-91.511,2015-06-05
30.507,-88.196,2015-01-19
30.507,-84.891,2015-06-14
30.508,-84.75,2015-07-18
30.508,-84.749,2015-07-13
30.508,-83.668,2015-04-02
30.509,-100.346,2015-08-03
30.51,-89.899,2015-08-27
30.51,-84.046,2015-02-08
30.511,-91.314,2015-01-29
30.511,-90.329,2015-05-23
30.512,-90.325,2015-04-21
30.512,-84.162,2015-03-16
30.513,-95.778,2015-01-30
30.513,-88.192,2015-01-19
30.513,-86.703,2015-04-24
30.514,-100.357,2015-08-03
30.514,-87.535,2015-03-31
30.514,-84.16,2015-04-01
30.515,-95.759,2015-01-30
30.515,-82.346,2015-02-13
30.516,-89.388,2015-02-12
30.516,-84.894,2015-06-14
30.516,-84.887,2015-06-13
30.517,-99.322,2015-02-13
30.517,-89.372,2015-02-12
30.517,-87.521,2015-03-31
30.517,-84.901,2015-06-13
30.518,-87.064,2015-02-12
30.518,-82.777,2015-05-22
30.519,-95.674,2015-02-12
30.519,-93.356,2015-05-04
30.52,-94.211,2015-06-10
30.521,-95.206,2015-01-29
30.522,-84.924,2015-03-07
30.522,-83.442,2015-02-07
30.523,-100.359,2015-08-03
30.523,-91.322,2015-01-20
30.523,-86.825,2015-01-27
30.523,-85.977,2015-02-13
30.524,-89.367,2015-02-12
30.524,-84.886,2015-05-21
30.524,-84.834,2015-06-16
30.524,-83.424,2015-02-07
30.524,-82.786,2015-05-07
30.525,-86.803,2015-01-27
30.525,-84.924,2015-03-07
30.525,-84.911,2015-02-14
30.525,-84.875,2015-05-21
30.525,-82.784,2015-05-22
30.526,-100.375,2015-08-03
30.526,-98.076,2015-05-02
30.526,-96.286,2015-07-30
30.527,-86.156,2015-03-20
30.528,-89.478,2015-07-24
30.528,-86.145,2015-03-20
30.528,-84.826,2015-03-09
30.529,-100.409,2015-08-04
30.529,-100.389,2015-08-04
30.529,-86.849,2015-03-28
30.53,-89.752,2015-01-31
30.53,-84.084,2015-04-01
30.53,-83.43,2015-02-07
30.531,-100.386,2015-08-04
30.531,-93.95,2015-05-01
30.531,-83.881,2015-05-18
30.533,-84.082,2015-03-04
30.534,-100.356,2015-08-03
30.535,-86.862,2015-03-28
30.535,-84.819,2015-03-09
30.535,-84.068,2015-03-04
30.536,-86.648,2015-06-14
30.536,-85.256,2015-02-14
30.536,-84.91,2015-01-19
30.537,-99.133,2015-06-01
30.537,-93.971,2015-05-01
30.537,-87.066,2015-02-12
30.539,-87.074,2015-02-12
30.539,-86.832,2015-08-02
30.539,-84.825,2015-03-09
30.54,-91.521,2015-06-05
30.54,-88.968,2015-02-28
30.54,-86.82,2015-08-02
30.54,-86.712,2015-01-30
30.541,-93.454,2015-01-27
30.541,-86.614,2015-06-14
30.541,-85.72,2015-08-14
30.541,-84.831,2015-03-08
30.541,-83.706,2015-03-20
30.542,-85.73,2015-07-08
30.542,-85.72,2015-07-15
30.542,-85.72,2015-08-14
30.542,-85.72,2015-08-14
30.543,-85.718,2015-08-21
30.543,-85.718,2015-08-21
30.543,-85.718,2015-08-21
30.543,-83.714,2015-07-09
30.543,-83.68,2015-06-18
30.544,-85.723,2015-07-08
30.544,-84.781,2015-06-16
30.545,-85.724,2015-07-18
30.545,-85.721,2015-07-08
30.546,-86.75,2015-03-29
30.547,-86.845,2015-08-02
30.547,-85.721,2015-07-25
30.548,-100.098,2015-03-24
30.548,-86.833,2015-08-02
30.548,-84.87,2015-05-20
30.548,-84.063,2015-03-18
30.548,-83.686,2015-02-11
30.55,-88.519,2015-07-25
30.551,-99.476,2015-05-27
30.551,-86.81,2015-08-02
30.552,-95.66,2015-02-19
30.552,-92.427,2015-06-05
30.553,-89.087,2015-05-01
30.553,-89.086,2015-01-29
30.554,-99.909,2015-06-01
30.554,-83.17,2015-05-21
30.555,-87.839,2015-03-07
30.555,-86.662,2015-05-30
30.556,-99.488,2015-05-27
30.556,-86.847,2015-08-02
30.556,-84.026,2015-03-20
30.557,-88.802,2015-02-28
30.558,-95.725,2015-02-14
30.558,-88.791,2015-02-28
30.559,-100.099,2015-03-24
30.559,-94.512,2015-08-16
30.559,-94.511,2015-08-16
30.559,-94.511,2015-08-16
30.56,-95.729,2015-01-28
30.56,-91.348,2015-02-13
30.56,-88.987,2015-02-28
30.56,-83.994,2015-03-17
30.561,-100.501,2015-08-02
30.561,-95.662,2015-02-19
30.561,-93.746,2015-06-02
30.561,-89.083,2015-01-29
30.561,-86.756,2015-01-25
30.561,-86.733,2015-03-29
